%YAML:1.0
---
opencv_ml_svm:
   format: 3
   svmType: C_SVC
   kernel:
      type: LINEAR
   C: 2.6699999999999999e+00
   term_criteria: { epsilon:1.1920928955078125e-07, iterations:1200 }
   var_count: 144
   class_count: 10
   class_labels: !!opencv-matrix
      rows: 10
      cols: 1
      dt: i
      data: [ -1, 0, 1, 2, 3, 4, 5, 6, 8, 10 ]
   sv_total: 45
   support_vectors:
      - [ -6.28261507e-01, 2.99409127e+00, 4.26168799e-01,
          -5.99336445e-01, 7.98479319e-01, 3.05405760e+00,
          -3.29359658e-02, -1.61931026e+00, 6.04039371e-01,
          2.73870564e+00, 9.41236675e-01, 3.54539990e+00,
          -6.86250985e-01, -5.96042275e-01, 4.88228381e-01,
          2.89114922e-01, -3.06254059e-01, -6.77434564e-01,
          -7.89062023e-01, 2.25436759e+00, 1.91326153e+00,
          1.42872000e+00, 2.09686995e+00, 2.65930474e-01,
          -6.86250985e-01, -5.96042275e-01, 4.88228381e-01,
          2.89114922e-01, -3.06254059e-01, -6.77434564e-01,
          -7.89062023e-01, 2.25436759e+00, 1.91326153e+00,
          1.42872000e+00, 2.09686995e+00, 2.65930474e-01, 1.53386497e+00,
          2.46317697e+00, 2.54706120e+00, 1.10581088e+00, 1.44192517e-01,
          -2.67606521e+00, 1.86956897e-01, 1.59697485e+00,
          1.64647710e+00, 6.25169933e-01, 2.44467235e+00,
          -2.79835773e+00, 2.22460651e+00, -2.26926744e-01,
          6.39545977e-01, 3.79123658e-01, -1.21097952e-01,
          7.06861839e-02, 2.26908758e-01, 2.06997347e+00, 1.82187986e+00,
          1.43067884e+00, 1.95961022e+00, 2.00262690e+00, 1.57319951e+00,
          2.41910553e+00, 2.46219826e+00, 1.36800015e+00, 3.19631249e-01,
          1.05937862e+00, 1.59647584e+00, 1.69895017e+00, 1.62293243e+00,
          7.44086146e-01, 2.34438419e+00, -1.07346499e+00,
          -1.45849586e+00, 1.53609836e+00, 1.59924960e+00,
          2.75001669e+00, 2.30616164e+00, -7.01265037e-01,
          -3.47248495e-01, 1.12286493e-01, -7.26768434e-01,
          9.92348731e-01, 3.58251072e-02, -1.41999424e+00,
          -9.51987386e-01, 1.20105982e+00, 1.46042216e+00,
          1.77745247e+00, 6.45817518e-01, 9.92555857e-01, 1.31533730e+00,
          2.73419452e+00, 1.92599666e+00, 1.21473575e+00, 1.56521130e+00,
          -5.65322936e-01, -2.20148087e+00, 1.85895371e+00,
          1.76561141e+00, 2.86565423e+00, 2.40606546e+00,
          -2.37855101e+00, -1.27235460e+00, -1.49537278e-02,
          -1.01083755e+00, 8.49406719e-01, -4.48205799e-01,
          -2.15078616e+00, -2.06270146e+00, 1.02466059e+00,
          1.52766514e+00, 1.77038097e+00, 5.14831245e-01, 8.31928909e-01,
          -1.05995998e-01, 3.02254176e+00, 2.15604544e+00,
          1.27488518e+00, 1.66159081e+00, -1.60689843e+00,
          2.90996504e+00, 2.45713568e+00, -2.96250749e+00,
          -2.31469464e+00, -4.24212456e+00, -2.54303813e+00,
          1.31010985e+00, 1.09518540e+00, -8.34101886e-02,
          3.90346676e-01, 4.49321628e-01, -3.58507752e+00,
          3.43015909e-01, 3.02628708e+00, 2.16628575e+00, 1.38734102e+00,
          2.08014607e+00, -2.04850972e-01, -2.57040882e+00,
          1.46592677e+00, 1.97016776e+00, -7.49748126e-02,
          3.45911598e+00, 4.35896778e+00 ]
      - [ 2.64599347e+00, 5.10037422e-01, 1.86519846e-01, 2.01635051e+00,
          1.56357145e+00, 6.79849207e-01, 1.20996952e+00,
          -1.44484234e+00, 9.97924984e-01, 1.95516038e+00,
          1.33202815e+00, 9.96903062e-01, 6.41786158e-01, 7.90616453e-01,
          3.27346891e-01, 2.05682721e-02, -2.05355787e+00,
          -3.99509460e-01, -8.01573038e-01, 2.78842356e-02,
          1.19340432e+00, 6.89514220e-01, 1.73162758e-01,
          -3.16665173e-01, 6.41786158e-01, 7.90616453e-01,
          3.27346891e-01, 2.05682721e-02, -2.05355787e+00,
          -3.99509460e-01, -8.01573038e-01, 2.78842356e-02,
          1.19340432e+00, 6.89514220e-01, 1.73162758e-01,
          -3.16665173e-01, -3.27260733e+00, 2.56596780e+00,
          4.96241689e-01, 1.21697974e+00, 5.06547578e-02,
          -2.37285957e-01, 2.55531549e-01, 8.99743021e-01,
          5.72591662e-01, 1.67332470e+00, 1.91565120e+00, 5.19606292e-01,
          1.14481163e+00, 8.52478623e-01, 3.90786588e-01,
          -8.25647358e-03, -1.01501846e+00, -3.18710536e-01,
          -1.50162309e-01, -1.99359059e-01, 1.09811330e+00,
          8.34860206e-01, 2.71410197e-01, 7.64526650e-02, 9.94881690e-01,
          2.60318017e+00, 4.35184717e-01, 1.19108665e+00, 9.10392031e-02,
          -1.76941261e-01, 4.16262329e-01, 7.95910001e-01,
          4.94407505e-01, 1.54052019e+00, 1.79122174e+00,
          -8.11123967e-01, 2.68094540e-01, 1.57368493e+00,
          6.93206668e-01, 2.55730677e+00, 2.57445955e+00, 9.45367277e-01,
          1.21827900e-01, 2.33520699e+00, 6.76660240e-02, 2.26281464e-01,
          9.55199957e-01, 5.54269075e-01, 1.23351061e+00, 9.19643760e-01,
          3.85776937e-01, -2.62556195e-01, -9.84665215e-01,
          3.34491760e-01, 1.56275749e+00, -1.28845245e-01,
          6.00178778e-01, 8.29546928e-01, 1.63917258e-01, 1.50550932e-01,
          -5.55158220e-02, 1.47068536e+00, 7.74693310e-01,
          2.68958044e+00, 2.71569657e+00, 6.34085596e-01,
          -1.73190907e-02, 2.29609656e+00, 7.21453801e-02,
          -1.45957902e-01, 7.35605836e-01, 4.91740584e-01,
          1.33571744e+00, 9.24611926e-01, 4.91790146e-01,
          -1.72403380e-01, -3.92705470e-01, -3.44726384e-01,
          1.02800179e+00, -2.76775748e-01, 6.44002616e-01,
          8.95936131e-01, 1.96831867e-01, 2.01335043e-01, 5.15740097e-01,
          -3.71016669e+00, -1.67408085e+00, 1.00204790e+00,
          2.33402729e+00, 1.12070918e+00, 1.44531453e+00, 1.20583057e+00,
          -1.17669307e-01, -1.75419700e+00, -1.34059572e+00,
          -2.99330950e-02, -4.27345067e-01, 2.54653215e+00,
          4.86115128e-01, 9.73770618e-01, -1.48500398e-01,
          -6.89439416e-01, 9.84204561e-02, 9.37876880e-01,
          5.25055587e-01, 1.35960674e+00, 1.28152525e+00,
          -7.39277899e-01 ]
      - [ 5.01245916e-01, 1.77765056e-01, -4.39366877e-01,
          4.81235862e-01, 1.28193808e+00, 1.06036985e+00,
          -8.41107666e-01, -4.34947550e-01, 1.30351090e+00,
          1.12264502e+00, 1.64595628e+00, -2.48182821e+00,
          8.81763697e-02, -3.64353210e-01, -1.39867830e+00,
          4.59658206e-01, 3.31479400e-01, -2.08577573e-01,
          -1.06956828e+00, 1.06208064e-01, 5.49118161e-01,
          1.72218907e+00, 1.27642894e+00, -6.92214966e-01,
          8.81763697e-02, -3.64353210e-01, -1.39867830e+00,
          4.59658206e-01, 3.31479400e-01, -2.08577573e-01,
          -1.06956828e+00, 1.06208064e-01, 5.49118161e-01,
          1.72218907e+00, 1.27642894e+00, -6.92214966e-01,
          -7.72161663e-01, -7.65347660e-01, -4.81167674e-01,
          1.57079184e+00, -1.10049628e-01, -2.50268030e+00,
          -2.00819445e+00, -8.26081574e-01, 1.23240709e+00,
          3.40392137e+00, 1.73263097e+00, -8.53083730e-01,
          -8.69580686e-01, -1.51555195e-01, -1.04233539e+00,
          2.50482708e-01, 2.42287412e-01, -2.42643982e-01,
          -6.51020110e-01, 1.01857252e-01, 4.71596181e-01,
          1.58513081e+00, 1.17859399e+00, -3.97994816e-01,
          -7.12898433e-01, -8.83838713e-01, -5.53619325e-01,
          1.38717234e+00, -3.09442692e-02, -1.84425759e+00,
          -1.29581749e+00, -1.05410874e+00, 1.02523267e+00,
          2.89576507e+00, 1.53591371e+00, -8.41015100e-01,
          -1.85853243e-01, -1.13178723e-01, 6.83866441e-01,
          -5.34534194e-02, 1.62206963e-01, 1.89093184e+00,
          -1.64591658e+00, -1.07899261e+00, -6.93937540e-02,
          -1.52554464e+00, -1.39792547e-01, 3.31713319e-01,
          3.01732957e-01, 8.54218602e-01, -3.44546825e-01,
          1.23918557e+00, 5.09117186e-01, 4.07859266e-01, 5.88883400e-01,
          1.51517764e-01, 4.84893143e-01, 1.05227089e+00, 1.22261548e+00,
          2.24329799e-01, -8.53628457e-01, -2.35281274e-01,
          6.18832111e-01, -4.34332758e-01, 7.93885589e-02,
          2.04183817e+00, -1.95451641e+00, -1.35445511e+00,
          -1.41370967e-01, -2.01091981e+00, -3.12582970e-01,
          -3.19829583e-01, -1.54988870e-01, 6.15760565e-01,
          -6.44622624e-01, 9.20089126e-01, 3.39316189e-01,
          4.95425075e-01, 7.37541616e-01, -2.17054367e-01,
          4.21672702e-01, 9.33019221e-01, 1.14310515e+00, 5.45718968e-02,
          1.09168971e+00, 7.99905717e-01, -3.87861681e+00,
          -2.92201972e+00, -1.23564267e+00, -6.25613987e-01,
          -9.58650336e-02, 3.88491988e-01, 4.14739810e-02,
          -6.18286729e-01, -1.16798782e+00, -3.88776839e-01,
          -2.53457665e+00, -2.25153160e+00, -7.43662179e-01,
          1.40590751e+00, 1.41320610e+00, -9.81286585e-01,
          1.72607340e-02, -2.12636375e+00, 7.48495877e-01,
          3.00158310e+00, 1.09094870e+00, 1.51392782e+00 ]
      - [ 1.20911920e+00, 9.37919393e-02, 1.70286283e-01, 1.82169691e-01,
          4.62271452e-01, 8.84972394e-01, -1.76060152e+00,
          -9.49289501e-01, 7.06351340e-01, 8.23619008e-01,
          1.13733804e+00, -1.10043073e+00, -4.39680576e-01,
          -5.66629291e-01, -6.31062567e-01, -2.40188897e-01,
          -2.12843195e-01, -1.10334493e-02, -3.96669745e-01,
          2.92818904e-01, 3.82208705e-01, 5.69343090e-01, 6.32377625e-01,
          -7.79744446e-01, -4.39680576e-01, -5.66629291e-01,
          -6.31062567e-01, -2.40188897e-01, -2.12843195e-01,
          -1.10334493e-02, -3.96669745e-01, 2.92818904e-01,
          3.82208705e-01, 5.69343090e-01, 6.32377625e-01,
          -7.79744446e-01, -1.47382736e+00, 1.30690373e-02,
          1.54579813e-02, 6.75827324e-01, -4.24830802e-02,
          -5.85980117e-01, -4.81569648e-01, -1.73358595e+00,
          -4.63078380e-01, 6.13126159e-01, 6.84200466e-01,
          -7.92960823e-01, -4.15653765e-01, -6.37081623e-01,
          -6.50423169e-01, -2.42398411e-01, -2.22111553e-01,
          -1.11287862e-01, -3.04332852e-01, 1.88220248e-01,
          3.66134197e-01, 5.77338994e-01, 6.36565089e-01,
          -6.88297749e-01, -1.41195238e+00, 1.10600099e-01,
          4.97011505e-02, 7.23468840e-01, -2.22164784e-02,
          -5.94383240e-01, -4.44370180e-01, -1.76111972e+00,
          -4.01747435e-01, 6.35521650e-01, 6.82232618e-01,
          -7.85259485e-01, 3.78751963e-01, 1.09073853e+00,
          7.25585163e-01, 4.55981940e-01, -2.78083175e-01,
          2.75994182e-01, 6.94698244e-02, 5.40214837e-01,
          -1.60369253e+00, -1.34291077e+00, -1.28643489e+00,
          -1.85643077e-01, -1.47911042e-01, 4.92261611e-02,
          -2.73773164e-01, -2.19626259e-02, -2.99263775e-01,
          -6.40086889e-01, 5.24721622e-01, 4.41624224e-01,
          3.09625000e-01, 5.02393782e-01, 4.65041041e-01, 2.24026158e-01,
          1.53312072e-01, 1.09023035e+00, 7.54987478e-01, 4.89091724e-01,
          -2.54156470e-01, 4.27272111e-01, 5.38798980e-02,
          4.59349990e-01, -1.65242791e+00, -1.48119950e+00,
          -1.41065383e+00, -1.25242770e-01, -4.23737377e-01,
          1.15232049e-02, -3.50717962e-01, -5.35103641e-02,
          -2.79893339e-01, -5.33856809e-01, 5.18004060e-01,
          4.31030184e-01, 3.12619001e-01, 5.25360942e-01, 4.48161721e-01,
          1.43405169e-01, -2.28254244e-01, -8.52605760e-01,
          -4.94796693e-01, -9.47730601e-01, -1.61767220e+00,
          -9.24135685e-01, 1.01112509e+00, 1.31355405e-01,
          -4.63479042e-01, -1.23284006e+00, -7.40674436e-02,
          -3.74595195e-01, -9.37335134e-01, 4.27158415e-01,
          1.40169412e-01, 6.46126688e-01, 3.06981891e-01,
          -1.19838631e+00, 3.77553999e-02, -1.75393391e+00,
          -4.47056770e-01, 4.58666384e-01, 1.50657699e-01,
          -1.91803908e+00 ]
      - [ 1.28425288e+00, 2.26477647e+00, 8.29921782e-01, 2.55894947e+00,
          1.81325650e+00, 2.86054397e+00, 6.14591956e-01, 2.79623699e+00,
          2.22705293e+00, 2.47055650e+00, 1.47036433e+00,
          -1.51596582e+00, 9.69615877e-01, 3.09308976e-01,
          2.45158955e-01, 2.57348120e-01, 4.52605933e-01, 1.01695824e+00,
          -3.60314935e-01, -3.49694699e-01, 7.62482047e-01,
          1.59915245e+00, 9.02299345e-01, 1.29825622e-01, 9.69615877e-01,
          3.09308976e-01, 2.45158955e-01, 2.57348120e-01, 4.52605933e-01,
          1.01695824e+00, -3.60314935e-01, -3.49694699e-01,
          7.62482047e-01, 1.59915245e+00, 9.02299345e-01, 1.29825622e-01,
          -9.97439623e-01, 1.18103778e+00, -3.39433521e-01,
          6.48182631e-01, 2.16927767e-01, 5.21806300e-01, 5.01726493e-02,
          1.20481408e+00, 1.26689637e+00, 2.70005846e+00, 2.70628881e+00,
          6.51091397e-01, 5.13329268e-01, 2.79579848e-01, 2.61861354e-01,
          1.96064696e-01, 3.38321686e-01, 9.49368536e-01,
          -7.97161579e-01, -1.11116374e+00, 6.77864373e-01,
          1.47090185e+00, 8.46069217e-01, 1.29741997e-01,
          -6.77513421e-01, 1.10662782e+00, -2.96674937e-01,
          5.55970728e-01, 7.12628588e-02, 1.77007109e-01,
          -1.78838328e-01, 1.05706716e+00, 1.17642999e+00,
          2.52496195e+00, 2.55456257e+00, -1.73158832e-02,
          4.03178841e-01, 1.20114291e+00, -2.04419374e+00,
          -1.77950275e+00, -2.20500544e-01, 7.33227909e-01,
          -1.86097413e-01, 7.66253531e-01, -1.72643578e+00,
          8.80481958e-01, -1.70483184e+00, -3.21576864e-01,
          -2.83006132e-01, -3.66980582e-01, 1.41174003e-01,
          9.17443275e-01, 4.67749894e-01, 1.00516427e+00,
          -1.14562027e-02, -1.22689247e+00, 3.43003958e-01,
          1.52327764e+00, 4.83348012e-01, -3.46693248e-01,
          -4.63276416e-01, 1.15190542e+00, -2.64090943e+00,
          -2.50925827e+00, -1.97055265e-01, 9.25848424e-01,
          -1.74729204e+00, 4.98346955e-01, -2.07199430e+00,
          4.59775984e-01, -2.47655225e+00, -1.75928211e+00,
          -9.94326055e-01, -6.79296911e-01, 4.58499081e-02,
          6.94170892e-01, 2.92235434e-01, 1.09396935e+00,
          -7.76905775e-01, -1.74042082e+00, 3.87191862e-01,
          1.50210631e+00, 4.28017825e-01, -4.51996475e-01,
          -5.57180524e-01, -6.53565466e-01, -2.68671989e+00,
          -3.23803306e+00, 2.91776955e-01, 6.78995490e-01,
          1.11593604e+00, 6.16612613e-01, -1.04317689e+00,
          -6.67738497e-01, -2.26574481e-01, -1.51883531e+00,
          -5.35665751e-01, 1.44836545e+00, -4.06948358e-01,
          5.11550069e-01, -4.42847997e-01, -3.84573191e-01,
          5.29864788e-01, 1.69397926e+00, 1.35503566e+00, 2.56002021e+00,
          1.83463061e+00, -2.37134767e+00 ]
      - [ 8.36908072e-02, 6.35565519e-01, -8.82830396e-02,
          -6.27278239e-02, 9.13272440e-01, 5.82568526e-01,
          -1.90451348e+00, 8.21273506e-01, 4.04108465e-01,
          8.85726571e-01, 1.28594244e+00, -1.46055710e+00,
          -2.34044969e-01, -3.00267190e-01, -8.81310627e-02,
          1.03140749e-01, 3.45473260e-01, -7.72346258e-01,
          -6.92031980e-01, 5.04979253e-01, 9.39237624e-02,
          -2.90225726e-02, 4.37632024e-01, -4.79608536e-01,
          -2.34044969e-01, -3.00267190e-01, -8.81310627e-02,
          1.03140749e-01, 3.45473260e-01, -7.72346258e-01,
          -6.92031980e-01, 5.04979253e-01, 9.39237624e-02,
          -2.90225726e-02, 4.37632024e-01, -4.79608536e-01,
          8.16976428e-01, -1.54681697e-01, -6.62062094e-02,
          -4.53984052e-01, 2.86764115e-01, 1.27465379e+00,
          1.37623155e+00, 1.12909675e+00, 3.15193594e-01,
          -1.46001518e-01, -1.02365959e+00, 4.99979109e-01,
          -3.97174150e-01, -2.33748540e-01, -1.87282622e-01,
          7.12694675e-02, 3.40441912e-01, -9.46236610e-01,
          -4.74803150e-01, 5.11442423e-01, 1.48831233e-01,
          9.90115702e-02, 6.11295998e-01, -1.43522233e-01,
          7.70330429e-01, -5.75600117e-02, -2.29396075e-02,
          -4.61554021e-01, 3.44158679e-01, 1.20058978e+00,
          1.33596539e+00, 1.08880877e+00, 3.55249584e-01, 7.31043518e-02,
          -8.97804260e-01, 2.88854271e-01, 8.61548558e-02,
          3.00234705e-01, -5.06475747e-01, -4.93297935e-01,
          6.35813355e-01, 5.63008249e-01, 3.55356038e-01,
          -6.11756861e-01, -4.84824806e-01, -3.18321496e-01,
          -1.52632207e-01, -2.77338266e-01, 2.63986707e-01,
          -3.25089425e-01, -9.37769711e-01, -1.85632512e-01,
          4.78025451e-02, -2.05327898e-01, -1.05248531e-02,
          3.36850077e-01, 1.67306155e-01, -7.11027682e-02,
          9.85649079e-02, -2.01604933e-01, -5.03878891e-01,
          7.12404922e-02, -6.09655261e-01, -7.27935612e-01,
          4.58830535e-01, 7.55916774e-01, 4.00394738e-01,
          -7.24106789e-01, -5.76153576e-01, -4.10746664e-01,
          -3.71220320e-01, -6.64200008e-01, -1.40462026e-01,
          -6.00473642e-01, -1.00413716e+00, -2.37788394e-01,
          4.10040468e-02, -3.32163334e-01, -2.32818544e-01,
          3.22526634e-01, 1.14893287e-01, -1.45401746e-01,
          2.54044775e-02, -4.86298084e-01, 5.43006301e-01,
          -7.13022113e-01, -1.48778093e+00, -1.38232803e+00,
          -2.31674695e+00, -1.28061187e+00, 8.87080550e-01,
          -9.20234263e-01, -1.73172379e+00, -1.11942701e-02,
          -1.50934413e-01, 2.17014387e-01, 1.80081987e+00,
          5.50041199e-01, 2.59871960e-01, 5.17988242e-02, 4.78397086e-02,
          -4.12160248e-01, 1.75691223e+00, 1.10128009e+00,
          3.49065125e-01, -4.88001674e-01, -1.68544567e+00,
          -2.05073476e+00 ]
      - [ 3.83483917e-01, -8.02938282e-01, -4.19509381e-01,
          -4.64104749e-02, 2.47708425e-01, 6.46443143e-02,
          -4.66700755e-02, -2.23176146e+00, 1.55402327e+00,
          2.61794686e+00, 4.72969234e-01, -4.76955324e-01,
          -2.05060422e-01, -1.07810564e-01, -1.95350513e-01,
          1.11626551e-01, 9.28997755e-01, 6.34679720e-02,
          -1.35496068e+00, 1.03260303e+00, -1.08435884e-01,
          -3.59944403e-01, -3.94803256e-01, 3.10029864e-01,
          -2.05060422e-01, -1.07810564e-01, -1.95350513e-01,
          1.11626551e-01, 9.28997755e-01, 6.34679720e-02,
          -1.35496068e+00, 1.03260303e+00, -1.08435884e-01,
          -3.59944403e-01, -3.94803256e-01, 3.10029864e-01,
          -6.44483864e-01, 2.11686432e-01, 5.39792895e-01,
          4.85105813e-01, -9.70645487e-01, 6.90292299e-01,
          2.07958913e+00, 1.35579443e+00, 6.69863760e-01,
          -8.37261736e-01, -4.85355139e-01, 4.37486261e-01,
          -1.00859649e-01, 1.48577848e-02, -1.28814131e-01,
          1.43711969e-01, 8.80504012e-01, 5.32538295e-01,
          -1.15943623e+00, 9.86036479e-01, 8.14404921e-04,
          -2.15846524e-01, -3.21446091e-01, 3.99881214e-01,
          -6.81477368e-01, 2.14167744e-01, 6.12919927e-01,
          5.42838514e-01, -7.52301753e-01, 7.12407112e-01,
          1.95463097e+00, 1.28178322e+00, 6.20125294e-01,
          -5.83708167e-01, -8.23418349e-02, 4.61225390e-01,
          -1.83240151e+00, -1.72908688e+00, -9.68867764e-02,
          1.27671635e+00, 1.46280622e+00, -1.20585954e+00,
          -6.25795066e-01, 2.40931496e-01, -2.56428599e-01,
          -7.16067135e-01, -1.32512912e-01, -1.66890240e+00,
          5.98928630e-01, -1.29618526e+00, -6.13977194e-01,
          1.27165258e-01, 1.05700827e+00, -9.72959340e-01,
          -8.74513865e-01, 7.11024463e-01, -6.64361864e-02,
          -1.72010317e-01, -3.28968227e-01, 9.58876133e-01,
          -2.49180984e+00, -2.33192205e+00, -1.96399584e-01,
          1.33255219e+00, 1.54509318e+00, -1.03974199e+00,
          -7.06848919e-01, 2.29032964e-01, -3.33237648e-01,
          -1.04652727e+00, -3.13855797e-01, -2.06511974e+00,
          8.64651859e-01, -1.61153412e+00, -7.58179605e-01,
          1.33467972e-01, 1.16528010e+00, -1.02336442e+00,
          -1.38235831e+00, 6.54699564e-01, -1.34445786e-01,
          -4.17962611e-01, -6.76481843e-01, 1.00453961e+00,
          2.97574341e-01, -2.72644907e-01, -7.68533945e-01,
          -1.51344168e+00, -1.68325448e+00, 4.89590138e-01,
          8.11454535e-01, -2.55541474e-01, -1.33853793e+00,
          -4.87438679e-01, -2.36377075e-01, -4.13850956e-02,
          1.33931720e+00, 7.10242987e-01, -1.53521806e-01,
          1.83364525e-01, -7.53690839e-01, 9.04298842e-01,
          2.05617547e+00, 1.24195552e+00, 8.18953156e-01,
          -6.49649680e-01, -4.21896428e-01, -1.64010513e+00 ]
      - [ 9.31446195e-01, 2.09311008e-01, -2.47861192e-01,
          5.03515542e-01, 2.81265974e-01, 1.29186571e+00,
          -1.52812803e+00, -5.51908255e-01, -1.69231862e-01,
          2.73197937e+00, 1.46210766e+00, -1.65370393e+00,
          -2.58808255e-01, -2.23278314e-01, -1.32794827e-01,
          8.20618868e-01, 6.71947777e-01, 1.34257777e-02,
          -5.98916888e-01, 1.07350504e+00, 2.78809369e-02,
          7.75554702e-02, -1.90650612e-01, -1.13137615e+00,
          -2.58808255e-01, -2.23278314e-01, -1.32794827e-01,
          8.20618868e-01, 6.71947777e-01, 1.34257777e-02,
          -5.98916888e-01, 1.07350504e+00, 2.78809369e-02,
          7.75554702e-02, -1.90650612e-01, -1.13137615e+00,
          -1.07795966e+00, 5.11649907e-01, 5.76362610e-01,
          9.32867825e-01, -8.74445066e-02, 3.14046919e-01,
          5.26095748e-01, 5.96164316e-02, -4.89517570e-01,
          -4.01815176e-01, 8.40247393e-01, 1.11744404e-01,
          -8.95434767e-02, -2.00565353e-01, -2.21016854e-01,
          7.73046732e-01, 6.03628278e-01, -6.62418306e-01,
          -1.92368686e-01, 8.73274565e-01, -3.78762074e-02,
          -2.47763410e-01, -1.66822374e-01, -8.39782119e-01,
          -8.13864768e-01, 4.64145362e-01, 6.33383274e-01,
          7.31512785e-01, -3.07173301e-02, 3.37526709e-01,
          3.65011275e-01, -8.58201757e-02, -4.69048738e-01,
          -4.71040696e-01, 3.60922068e-01, -1.70625240e-01,
          -8.38617861e-01, -9.90321517e-01, -1.58672404e+00,
          8.80873859e-01, 1.20083547e+00, 9.33991313e-01,
          -1.22997868e+00, 2.09533855e-01, -1.49630523e+00,
          -1.66661882e+00, -2.85441875e-01, -1.16421795e+00,
          6.21095821e-02, -3.04130036e-02, -9.52324808e-01,
          5.55347562e-01, 6.15270436e-01, -1.26655793e+00,
          -4.84635502e-01, 3.88615429e-01, -2.86831319e-01,
          -2.69139469e-01, -3.65281463e-01, 7.31014490e-01,
          -1.17321849e+00, -9.73336518e-01, -1.60645700e+00,
          1.01228237e+00, 1.33928514e+00, 1.06706321e+00,
          -1.04834998e+00, 2.21581817e-01, -1.58556461e+00,
          -1.75248659e+00, -2.89201021e-01, -1.49994659e+00,
          -9.43060890e-02, 1.40393209e-02, -9.39363003e-01,
          5.87492406e-01, 6.80450618e-01, -9.26308274e-01,
          -3.82522106e-01, 4.30053502e-01, -3.02537322e-01,
          -2.41815671e-01, -3.62330347e-01, 6.97559118e-01,
          -1.45200668e-02, -2.02719226e-01, -3.09883744e-01,
          -2.33965087e+00, -2.82531548e+00, 2.21273732e+00,
          1.11470640e+00, 3.00772578e-01, -1.46018580e-01,
          -1.03239405e+00, -2.79683828e-01, -1.69405773e-01,
          -2.67572135e-01, 1.35722423e+00, 4.57682341e-01,
          -2.21384704e-01, 3.53553832e-01, 1.19185233e+00,
          1.28376985e+00, -6.79773033e-01, -7.76528180e-01,
          -8.32897067e-01, -2.30522528e-01, -2.16478658e+00 ]
      - [ 5.00772178e-01, 4.39241052e-01, 2.81033695e-01,
          -5.46302199e-01, -1.98637038e-01, 1.37306082e+00,
          -1.37320089e+00, 9.83718455e-01, 6.44908369e-01,
          2.52963424e+00, -2.05052328e+00, -2.31791782e+00,
          -9.50976312e-01, 4.12174731e-01, -5.60694933e-01,
          -2.31590286e-01, -6.51726186e-01, -7.06825733e-01,
          -1.11397564e+00, 8.59821558e-01, 3.84933740e-01,
          1.13399971e+00, 1.03211915e+00, -1.62694132e+00,
          -9.50976312e-01, 4.12174731e-01, -5.60694933e-01,
          -2.31590286e-01, -6.51726186e-01, -7.06825733e-01,
          -1.11397564e+00, 8.59821558e-01, 3.84933740e-01,
          1.13399971e+00, 1.03211915e+00, -1.62694132e+00,
          -5.18329859e-01, 3.56441259e-01, 3.25999036e-02,
          -3.19301248e-01, -4.45943803e-01, -1.58420548e-01,
          -1.90120041e+00, 3.22789937e-01, 4.13750559e-01,
          1.45755768e+00, -1.11327684e+00, -1.23690414e+00,
          -4.15207982e-01, 4.27211821e-01, -4.12579179e-01,
          -1.35549322e-01, -5.68481266e-01, -4.70436990e-01,
          -4.06606197e-01, 7.83294141e-01, 3.58035266e-01,
          1.04326999e+00, 9.75145698e-01, -1.10234594e+00,
          -3.58031034e-01, 6.05819464e-01, 7.16243684e-02,
          -2.75794178e-01, -4.36396122e-01, 7.12687969e-02,
          -1.09819841e+00, 3.65727752e-01, 3.90691072e-01,
          1.38381493e+00, -7.73808777e-01, -9.11270678e-01,
          -4.37510818e-01, 7.56719291e-01, 1.74261972e-01,
          1.30859268e+00, 6.18239462e-01, -8.71541262e-01,
          -1.50762892e+00, -3.71343166e-01, -8.71760488e-01,
          -3.91266823e-01, -7.72464097e-01, -1.22264898e+00,
          -1.65528584e+00, 4.98560250e-01, -2.10361883e-01,
          4.11176175e-01, -4.91217561e-02, 1.82248726e-01,
          -1.18444073e+00, 6.51134133e-01, 2.86366910e-01,
          7.43502975e-01, 6.86645091e-01, 4.48011160e-01,
          -6.94512844e-01, 7.60878861e-01, 1.66721031e-01,
          1.42688894e+00, 6.07524395e-01, -1.37400150e+00,
          -1.68507326e+00, -4.06322181e-01, -9.73645031e-01,
          -4.59266543e-01, -9.07930911e-01, -1.63838243e+00,
          -2.43094778e+00, 5.23838341e-01, -2.11422220e-01,
          4.40755337e-01, -7.21293017e-02, 1.18407719e-01,
          -1.54351890e+00, 6.98180079e-01, 3.10473621e-01,
          8.17481399e-01, 7.55121529e-01, 3.74800205e-01, 2.50006437e+00,
          -2.65281945e-01, -2.07847047e+00, -9.27271128e-01,
          6.48928821e-01, -1.37467027e+00, 6.84358895e-01,
          4.65760797e-01, 3.34252864e-01, 6.47851586e-01, 1.72066921e-05,
          7.90892005e-01, -6.82809830e-01, 1.10437536e+00,
          -2.27330610e-01, -4.94926155e-01, -7.21653640e-01,
          2.18692888e-02, 7.78471172e-01, -6.08664989e-01,
          8.35950896e-02, 1.37685287e+00, -1.19873512e+00,
          5.32411449e-02 ]
      - [ 4.52523530e-01, 2.50257999e-01, 2.12593585e-01, 1.81168780e-01,
          3.91453095e-02, 4.73804493e-03, 4.38527197e-01,
          -5.01046658e-01, -8.38325024e-02, 4.75038998e-02,
          2.38509849e-01, -1.45709127e-01, 6.33789837e-01,
          2.05667153e-01, 7.42982253e-02, -4.78906393e-01,
          -6.75574243e-01, -4.81920362e-01, 2.17194989e-01,
          -3.20378691e-01, -4.82820421e-02, -4.18160230e-01,
          -2.68247038e-01, 2.56344229e-01, 6.33789837e-01,
          2.05667153e-01, 7.42982253e-02, -4.78906393e-01,
          -6.75574243e-01, -4.81920362e-01, 2.17194989e-01,
          -3.20378691e-01, -4.82820421e-02, -4.18160230e-01,
          -2.68247038e-01, 2.56344229e-01, -4.34144616e-01,
          4.13066894e-02, -3.40176187e-02, 1.12185486e-01,
          6.54739812e-02, 6.17462754e-01, 1.28574714e-01,
          -6.37988746e-02, 0., -5.14497124e-02, 8.01173002e-02,
          -8.22286755e-02, 6.27489269e-01, 1.81549653e-01,
          7.00162500e-02, -3.53895098e-01, -5.80359578e-01,
          -4.61026788e-01, 2.31019720e-01, -2.29035228e-01,
          -3.21266092e-02, -2.73076415e-01, -1.90874010e-01,
          4.10101086e-01, -3.16216350e-01, 4.35580239e-02,
          -2.63812989e-02, 1.05252050e-01, 6.33354560e-02,
          5.83196521e-01, 1.60457090e-01, -5.74821159e-02, 0.,
          -3.52383517e-02, 8.30888301e-02, 1.31713465e-01,
          -8.81879091e-01, 8.45326781e-02, 0., -4.58821049e-03,
          -1.91111099e-02, 4.89695698e-01, -4.93479371e-01,
          1.10362262e-01, 4.24928218e-02, -6.99526817e-02,
          7.86716864e-02, 4.81695414e-01, 6.26075864e-01, 9.58599970e-02,
          8.88691191e-03, -3.47830415e-01, -6.67962253e-01,
          -3.96999955e-01, 2.30755031e-01, -6.48908457e-03,
          7.57588493e-03, -2.75616109e-01, -1.84627399e-01,
          3.20049793e-01, -8.03759515e-01, 1.01097494e-01, 0.,
          -2.99600582e-03, -2.06690077e-02, 6.13943815e-01,
          -5.80925882e-01, 1.21856339e-01, 4.80409563e-02,
          -6.46784157e-02, 8.52549672e-02, 6.00842476e-01,
          6.54083133e-01, 1.03843436e-01, 1.17407069e-02,
          -3.55291367e-01, -6.93218410e-01, -3.93067271e-01,
          2.66859889e-01, -8.60820059e-03, 7.41373794e-03,
          -2.75676578e-01, -1.85237616e-01, 5.04623294e-01,
          -5.18542349e-01, -3.46208811e-01, 1.44236833e-02,
          3.78534168e-01, 4.48602408e-01, 4.05045688e-01,
          -1.46640912e-01, 6.45039007e-02, 1.20733649e-01,
          -9.58364177e-03, -8.58688653e-02, -6.10367246e-02,
          -2.59523392e-01, -7.47572491e-03, -2.50853151e-02,
          5.93798347e-02, -1.91734806e-02, 4.59640294e-01,
          2.27452025e-01, 1.57795753e-02, 0., 6.86783576e-03,
          1.00862421e-01, 1.89684182e-01 ]
      - [ 3.59786689e-01, 3.53114605e-01, 2.29435459e-01, 1.32020175e-01,
          -5.34127168e-02, -1.07551813e-01, 1.32424785e-02,
          1.78051531e-01, 2.19259784e-02, -8.54693130e-02,
          -5.55610478e-01, -1.25563312e+00, 3.56806099e-01,
          -1.76933765e-01, -4.23737884e-01, -1.90623194e-01,
          -4.84925687e-01, -4.00363117e-01, 3.58729094e-01,
          -2.03636423e-01, -1.66010279e-02, -3.50318030e-02,
          -3.93573791e-02, 3.72244567e-02, 3.56806099e-01,
          -1.76933765e-01, -4.23737884e-01, -1.90623194e-01,
          -4.84925687e-01, -4.00363117e-01, 3.58729094e-01,
          -2.03636423e-01, -1.66010279e-02, -3.50318030e-02,
          -3.93573791e-02, 3.72244567e-02, -7.47682631e-01,
          -4.01010752e-01, -3.22788566e-01, -3.03556204e-01,
          -2.66756654e-01, -2.38334566e-01, -8.96703824e-02,
          -5.36640823e-01, -7.75609352e-03, 1.23873875e-01,
          1.56731904e-01, 7.51252472e-02, 2.78134823e-01,
          -1.49975583e-01, -3.72554332e-01, -1.70027807e-01,
          -4.41708475e-01, -3.61226588e-01, 3.23119611e-01,
          -1.73738897e-01, -1.51736261e-02, -3.16548198e-02,
          -3.52439173e-02, 4.99760844e-02, -6.59946263e-01,
          -3.73055100e-01, -3.05013835e-01, -2.80729562e-01,
          -2.46296316e-01, -1.49060830e-01, -2.39820275e-02,
          -5.20913720e-01, -7.78393494e-03, 1.14435218e-01,
          1.47932887e-01, 1.10084578e-01, 1.25960991e-01,
          -2.95409579e-02, -2.93467008e-02, -2.71087021e-01,
          -5.84440567e-02, 1.02470469e+00, -8.38763833e-01,
          -1.10857415e+00, -1.80375967e-02, -4.34563965e-01,
          -6.05901259e-05, 5.18677533e-01, 3.41115594e-01,
          -4.99476008e-02, -3.51909935e-01, -1.50666147e-01,
          -4.10325378e-01, -2.09728822e-01, 4.71547395e-01,
          -3.02735925e-01, -2.37116143e-02, -6.60856590e-02,
          -7.29751401e-03, 1.55614726e-02, 2.76896477e-01,
          -1.58221386e-02, -2.96981484e-02, -2.85074830e-01,
          -6.42192066e-02, 1.09216654e+00, -8.36695969e-01,
          -1.17524600e+00, -1.35069536e-02, -4.55225885e-01,
          5.65404422e-04, 5.69808841e-01, 4.23224896e-01,
          -4.75508310e-02, -3.72080326e-01, -1.54700458e-01,
          -4.31133807e-01, -2.16779128e-01, 5.38265228e-01,
          -3.27423275e-01, -2.77768672e-02, -7.30449259e-02,
          -7.86980893e-03, 1.39896363e-01, -1.03076905e-01,
          -3.79329145e-01, -6.93853498e-01, -5.41279256e-01,
          6.40659392e-01, -3.64032276e-02, -5.17611802e-01,
          7.92872086e-02, 2.05651090e-01, -1.82257131e-01,
          1.71353787e-01, 1.08141694e-02, -7.48779058e-01,
          -6.32193804e-01, -2.94112027e-01, -3.19874674e-01,
          -2.68862456e-01, -9.97928232e-02, 4.00251031e-01,
          -7.10661232e-01, -1.20099653e-02, 9.72079188e-02,
          1.35498330e-01, 3.42580497e-01 ]
      - [ 3.68635327e-01, 1.10991649e-01, -1.27768070e-01,
          3.03993449e-02, -3.47512476e-02, -4.75852415e-02,
          -3.08984101e-01, -7.25064874e-01, 2.49412656e-02,
          -3.39748800e-01, -4.16219622e-01, -8.36742282e-01,
          2.57989258e-01, -4.45957512e-01, -3.17325890e-01,
          -5.37116349e-01, -3.75087917e-01, -1.72884345e-01,
          1.62482202e-01, -9.03449357e-02, -3.57869989e-03,
          -7.99892992e-02, -8.28561634e-02, -1.17694221e-01,
          2.57989258e-01, -4.45957512e-01, -3.17325890e-01,
          -5.37116349e-01, -3.75087917e-01, -1.72884345e-01,
          1.62482202e-01, -9.03449357e-02, -3.57869989e-03,
          -7.99892992e-02, -8.28561634e-02, -1.17694221e-01,
          -9.09977078e-01, -7.73957744e-02, -1.84398204e-01,
          2.18430281e-01, -1.02422861e-02, 1.04041308e-01,
          -6.12595864e-02, -8.72361779e-01, -1.24211662e-01,
          1.88979749e-02, 2.43873354e-02, 7.40719512e-02, 1.18859060e-01,
          -4.76976246e-01, -3.26249003e-01, -5.32146096e-01,
          -3.81818056e-01, -2.67970324e-01, 1.60984732e-02,
          -8.78725126e-02, -2.15086131e-03, -7.04060271e-02,
          -7.42537305e-02, -1.40075743e-01, -9.77707803e-01,
          -7.98221231e-02, -1.77504882e-01, 1.88657030e-01,
          -3.04060318e-02, 2.53049713e-02, -1.66533083e-01,
          -8.34854424e-01, -1.14608616e-01, 1.62430778e-02,
          2.35274546e-02, -9.87314582e-02, 1.69228837e-01,
          1.33030191e-01, -2.81609818e-02, -8.69985372e-02,
          -2.71779060e-01, 8.39621484e-01, 5.32453656e-01,
          -5.90491712e-01, -4.60278988e-01, -5.34008086e-01,
          -8.98222744e-01, 1.22990176e-01, 1.93048537e-01,
          -3.19163859e-01, -3.53276640e-01, -4.78441179e-01,
          -3.34128857e-01, -3.18901837e-01, 2.18911141e-01,
          -1.27676755e-01, -8.56384169e-03, -8.25820267e-02,
          -9.57719386e-02, -5.79658188e-02, 1.18903957e-01,
          1.09403990e-01, -3.15947905e-02, -9.36423168e-02,
          -2.87787765e-01, 9.53460395e-01, 5.68354547e-01,
          -6.09687150e-01, -4.80643481e-01, -5.52571833e-01,
          -9.39754605e-01, 2.10208029e-01, 1.51656926e-01,
          -3.23761463e-01, -3.67905647e-01, -4.90477264e-01,
          -3.47659528e-01, -2.96561778e-01, 2.17800260e-01,
          -1.30762294e-01, -7.93834403e-03, -8.45569670e-02,
          -9.75492001e-02, -4.93206978e-02, -6.40260041e-01,
          -5.92026711e-01, -2.04831704e-01, -6.57106876e-01,
          -1.79066762e-01, 1.17856629e-01, -2.70056818e-02,
          9.61402357e-02, -2.88322046e-02, -1.46392763e-01,
          5.38719818e-02, -9.54725593e-02, -5.21078646e-01,
          -1.47825792e-01, -1.20935768e-01, 4.36231010e-02,
          -1.59134939e-01, -1.08164288e-01, 9.94739234e-02,
          -8.59022439e-01, -1.07968681e-01, 1.54835824e-02,
          -2.89489273e-02, -7.00072825e-01 ]
      - [ 1.90758109e-01, 8.02665874e-02, 8.48841965e-02, 1.70963272e-01,
          2.24640016e-02, 9.66893602e-03, -1.59762591e-01,
          1.05705321e+00, 3.63022327e-01, 2.54868001e-01,
          -1.31981120e-01, -4.33988035e-01, 6.78325117e-01,
          1.68698192e-01, 1.88734770e-01, 1.02716118e-01, 6.34060502e-02,
          3.51343900e-01, -1.37592673e-01, -3.46393168e-01,
          -8.58270796e-04, -6.73209578e-02, -6.40109833e-03,
          -7.96906278e-02, 6.78325117e-01, 1.68698192e-01,
          1.88734770e-01, 1.02716118e-01, 6.34060502e-02, 3.51343900e-01,
          -1.37592673e-01, -3.46393168e-01, -8.58270796e-04,
          -6.73209578e-02, -6.40109833e-03, -7.96906278e-02,
          -7.11633921e-01, 7.32597187e-02, -1.12628721e-01,
          -1.35574147e-01, 1.22459799e-01, 2.08876550e-01,
          4.14005160e-01, 2.41262019e-02, -1.89906023e-02,
          1.08250201e-01, 3.90091874e-02, -2.53361221e-02,
          5.88220358e-01, 1.52725190e-01, 1.66832015e-01, 8.82501304e-02,
          4.96521108e-02, 3.21006387e-01, -2.71900594e-01,
          -3.35133284e-01, -8.12859624e-04, -6.37345836e-02,
          -6.13986794e-03, -7.84825385e-02, -7.40119934e-01,
          6.58302084e-02, -1.08824581e-01, -1.38798207e-01,
          1.12127170e-01, 2.05848306e-01, 3.64718884e-01, 1.85814593e-02,
          -1.78798065e-02, 9.96422619e-02, 3.66230384e-02,
          -9.82569680e-02, 3.61348301e-01, -1.49684817e-01,
          -5.45271814e-01, -1.08000100e+00, -4.96792406e-01,
          8.70013177e-01, -2.14249827e-02, -3.03018898e-01,
          4.61366251e-02, 3.85710657e-01, 1.61945641e-01, 6.05883181e-01,
          6.31207585e-01, 2.89932061e-02, 9.47739482e-02, 2.68385746e-02,
          2.73926817e-02, 2.42191419e-01, -1.76485941e-01,
          -4.85707372e-01, -8.12859624e-04, -3.48940492e-02,
          -5.01384726e-03, 5.94660267e-02, 3.76454592e-01,
          -1.69451073e-01, -6.33050919e-01, -1.24587226e+00,
          -5.73528230e-01, 9.25438941e-01, -1.12310871e-01,
          -3.53616297e-01, 4.53203619e-02, 4.20846879e-01,
          1.55991003e-01, 6.58152401e-01, 6.07302547e-01, 7.64132943e-03,
          1.05369821e-01, 2.23350897e-02, 2.61946600e-02, 2.54034668e-01,
          -3.79158348e-01, -5.57874322e-01, -9.25926026e-04,
          -4.20972072e-02, -5.73738758e-03, 9.58721489e-02,
          -9.60438728e-01, -1.74749479e-01, -8.19787979e-02,
          5.73424578e-01, 7.30499804e-01, 6.44347906e-01, 8.36979896e-02,
          1.07316293e-01, 1.02413207e-01, 5.08897305e-02, 1.65577918e-01,
          3.70533466e-02, -4.71967131e-01, 3.81602943e-02,
          -1.32283211e-01, -3.10733110e-01, -6.16741227e-03,
          1.31417796e-01, 8.78385425e-01, 6.81601837e-02, 2.80635082e-03,
          1.03769697e-01, -3.65373902e-02, -7.07105517e-01 ]
      - [ -1.14029415e-01, -3.35579365e-02, 2.45059170e-02,
          7.76013359e-02, 1.50317140e-02, -7.59900212e-02,
          -6.62111223e-01, -2.33841240e-02, -1.23707585e-01,
          -4.05505523e-02, 1.66709259e-01, -7.51237810e-01,
          2.50959456e-01, -1.21684030e-01, -1.30968004e-01,
          -1.70262784e-01, 4.50223014e-02, -1.10955372e-01,
          -3.07330459e-01, 3.29285022e-03, -2.60310918e-01,
          -1.65285975e-01, -2.01222554e-01, -1.12759635e-01,
          2.50959456e-01, -1.21684030e-01, -1.30968004e-01,
          -1.70262784e-01, 4.50223014e-02, -1.10955372e-01,
          -3.07330459e-01, 3.29285022e-03, -2.60310918e-01,
          -1.65285975e-01, -2.01222554e-01, -1.12759635e-01,
          2.50346869e-01, -3.18855971e-01, -2.52642035e-01,
          -3.24811161e-01, 6.17155805e-02, 9.69354808e-01,
          4.63493228e-01, 1.17059633e-01, -2.64786016e-02,
          -4.08228606e-01, -1.30384290e+00, 6.67032778e-01,
          -8.40501413e-02, -1.92599282e-01, -1.42477080e-01,
          -1.64022937e-01, 2.03022342e-02, -1.70200780e-01,
          -4.74616945e-01, -8.81001237e-04, -2.13514343e-01,
          -1.67327851e-01, -2.12557852e-01, -1.98908448e-01,
          1.99909955e-01, -3.23791146e-01, -2.84524053e-01,
          -3.58264178e-01, -4.38658148e-02, 7.95342267e-01,
          3.96305084e-01, 1.02528334e-01, -1.71796214e-02,
          -4.14886922e-01, -1.23139381e+00, 4.38718110e-01,
          -2.21534669e-02, -7.58189932e-02, -2.52426237e-01,
          -2.47201622e-01, -1.26196682e-01, 3.34044695e-01,
          2.25187659e-01, -1.40332177e-01, -5.65374307e-02,
          2.90193707e-02, -2.62444109e-01, 3.27081382e-02,
          2.49764584e-02, -2.42167056e-01, -3.34552020e-01,
          -2.29630247e-01, -1.55995220e-01, -7.45452717e-02,
          -1.75648749e-01, -1.79568008e-02, -2.19419971e-01,
          -1.60498485e-01, -1.95396855e-01, 6.33692145e-02,
          -8.65333304e-02, -8.71860161e-02, -2.83108294e-01,
          -2.96158582e-01, -1.44205585e-01, 4.23936486e-01,
          2.38657981e-01, -1.62713706e-01, -6.93342239e-02,
          2.12134626e-02, -2.91026860e-01, 9.52604134e-03,
          -7.35324472e-02, -2.62172490e-01, -3.82537007e-01,
          -2.61633098e-01, -1.77364722e-01, -8.12514201e-02,
          -1.92983061e-01, -2.29674131e-02, -2.33930886e-01,
          -1.84102654e-01, -2.21059412e-01, 3.54455821e-02,
          -1.36510894e-01, -1.44768894e-01, 3.94416265e-02,
          -2.97820330e-01, -3.35566282e-01, 1.04096368e-01,
          9.00952369e-02, -1.02160670e-01, -1.90303326e-01,
          -8.16004872e-02, -5.65955639e-02, 3.91840488e-02,
          4.77518559e-01, -1.89550489e-01, -1.69801831e-01,
          -3.22952151e-01, -1.60642654e-01, 6.48691773e-01,
          6.00404203e-01, 1.43176377e-01, 1.36236865e-02,
          -4.22199041e-01, -1.45553887e+00, -1.05785273e-01 ]
      - [ 2.46775690e-02, -1.36003599e-01, -2.65543275e-02,
          5.08089438e-02, 1.40969008e-02, 3.10665201e-02,
          -2.23492727e-01, -3.65408093e-01, 2.28741720e-01,
          1.16856746e-01, 3.00489292e-02, -8.71745273e-02,
          6.12625301e-01, -6.60051554e-02, 1.28935233e-01,
          3.83638032e-02, 9.61645022e-02, 3.27822454e-02,
          -5.27712464e-01, -6.99011236e-02, -4.98927496e-02,
          -3.04576606e-01, -3.66392791e-01, -7.41800144e-02,
          6.12625301e-01, -6.60051554e-02, 1.28935233e-01,
          3.83638032e-02, 9.61645022e-02, 3.27822454e-02,
          -5.27712464e-01, -6.99011236e-02, -4.98927496e-02,
          -3.04576606e-01, -3.66392791e-01, -7.41800144e-02,
          9.18428078e-02, -5.66614330e-01, -2.79167205e-01,
          1.42414551e-02, -4.75338638e-01, 1.09434021e+00,
          7.51386583e-01, 4.28976454e-02, -1.85114890e-01,
          -5.58513403e-01, -6.66375220e-01, 6.83632970e-01,
          5.46714604e-01, -6.64307550e-02, 1.13081604e-01,
          3.33075486e-02, 8.61837566e-02, 3.77787352e-02,
          -5.07075727e-01, -6.37980923e-02, -4.28083017e-02,
          -2.82447487e-01, -3.36335599e-01, -1.02027923e-01,
          7.63218179e-02, -5.17988205e-01, -2.54151642e-01,
          7.98861403e-03, -4.36277270e-01, 9.91525650e-01,
          6.74381495e-01, 3.69176157e-02, -1.69587880e-01,
          -5.11134505e-01, -6.11106217e-01, 6.09917164e-01,
          -6.39454484e-01, -5.05145729e-01, -1.36608750e-01,
          -9.59137902e-02, -8.86880606e-02, 3.23488414e-02,
          1.90361947e-01, -1.03611946e-01, 1.40219048e-01,
          1.18755825e-01, -6.47621811e-04, 2.06847519e-01,
          7.38520563e-01, -2.28250965e-01, -3.72248702e-03,
          -4.04760465e-02, 7.11515471e-02, -1.07359275e-01,
          -4.66066152e-01, -7.02623576e-02, -4.30169702e-02,
          -2.69409001e-01, -3.32607061e-01, 5.08899242e-02,
          -7.52020717e-01, -5.70354044e-01, -1.54718980e-01,
          -1.06748916e-01, -1.01115212e-01, -1.08450791e-02,
          1.62631661e-01, -1.24361590e-01, 1.56491339e-01,
          1.31876990e-01, -3.67140374e-03, 2.03441039e-01,
          8.26225042e-01, -2.71400243e-01, -4.04976914e-03,
          -4.69224043e-02, 7.98045471e-02, -1.11448862e-01,
          -6.60553515e-01, -8.14689919e-02, -4.60754670e-02,
          -3.00735593e-01, -3.80681902e-01, 5.75566106e-02,
          -3.65610063e-01, -1.59740791e-01, -2.54548550e-01,
          1.41790345e-01, -8.34945366e-02, 5.34893632e-01,
          6.76364079e-02, -3.27124298e-02, -9.95292068e-02,
          -1.77082777e-01, -1.19558468e-01, -4.79915924e-02,
          5.50804794e-01, -5.68861306e-01, -2.04527885e-01,
          -3.51122804e-02, -3.47359776e-01, 9.21405017e-01,
          1.13531888e+00, 7.28782266e-02, -1.94898665e-01,
          -5.72126329e-01, -8.58390152e-01, 8.23157728e-02 ]
      - [ 9.64210182e-02, 1.62200168e-01, 1.46137223e-01, 1.99934855e-01,
          1.30314231e-01, -1.01271151e-02, -1.64650932e-01,
          2.44690120e-01, 1.55993536e-01, 2.48297885e-01,
          -7.52138300e-03, -7.93817461e-01, 2.64007270e-01,
          1.34210825e-01, 1.17615961e-01, 3.39418389e-02, 1.99300334e-01,
          -6.07417345e-01, 4.65965550e-03, -2.33553536e-03,
          -1.86686948e-01, -2.37976313e-01, -3.56659502e-01,
          -1.14255585e-01, 2.64007270e-01, 1.34210825e-01,
          1.17615961e-01, 3.39418389e-02, 1.99300334e-01,
          -6.07417345e-01, 4.65965550e-03, -2.33553536e-03,
          -1.86686948e-01, -2.37976313e-01, -3.56659502e-01,
          -1.14255585e-01, -7.56053150e-01, -1.63291737e-01,
          -1.45975947e-01, 3.84661253e-03, -2.06587672e-01,
          3.74201685e-01, 7.09294736e-01, -4.13100094e-01,
          -2.56206363e-01, -3.15544277e-01, -5.23293376e-01,
          8.79787803e-02, 1.89658687e-01, 1.07710585e-01, 9.99318287e-02,
          2.27387212e-02, 1.72243133e-01, -6.50907040e-01,
          -1.04133196e-01, -2.19033496e-03, -1.70874417e-01,
          -2.24924192e-01, -3.38910580e-01, -1.80547968e-01,
          -7.39303529e-01, -1.55324742e-01, -1.39242485e-01,
          -6.06018631e-03, -2.01575205e-01, 2.64013737e-01,
          6.23895109e-01, -3.78954172e-01, -2.37285435e-01,
          -3.04291219e-01, -5.11427402e-01, -1.54805034e-02,
          -3.66312623e-01, -5.09072840e-01, -1.95680186e-01,
          -9.37303752e-02, -1.24850877e-01, 1.27838802e+00,
          -5.45998454e-01, -6.88638240e-02, -1.99478373e-01,
          -1.69947460e-01, 1.84787074e-04, 2.37223789e-01,
          3.12975198e-01, 9.06452164e-03, -3.80851217e-02,
          8.56671762e-03, 6.47329688e-02, -7.00219870e-01,
          -8.64856392e-02, -2.64864904e-03, -1.70874417e-01,
          -2.32903883e-01, -3.38910580e-01, 4.88512851e-02,
          -3.90877366e-01, -5.49622178e-01, -2.15501755e-01,
          -1.05054013e-01, -1.40978262e-01, 1.43035913e+00,
          -6.26795828e-01, -7.61032924e-02, -2.22294673e-01,
          -1.97426811e-01, -6.34715287e-03, 2.55138576e-01,
          3.12538177e-01, 1.08239576e-02, -4.41296212e-02,
          9.04429238e-03, 7.35287517e-02, -7.31739581e-01,
          -1.49299726e-01, -2.84612761e-03, -1.83066487e-01,
          -2.51569301e-01, -3.69834810e-01, 6.01463877e-02,
          -1.22615144e-01, -6.65890634e-01, -3.46366800e-02,
          -7.28532910e-01, 5.86850829e-02, 6.47792876e-01,
          3.15904580e-02, 9.96083841e-02, 1.91978857e-01,
          -1.69457778e-01, 1.07579246e-01, 1.03770837e-01,
          -6.89821839e-01, -8.66364017e-02, -1.70135483e-01,
          -2.55085170e-01, -2.37452492e-01, 4.57848400e-01,
          8.77926946e-01, -3.90600502e-01, -2.63204396e-01,
          -3.31865340e-01, -5.84065497e-01, -4.37296540e-01 ]
      - [ 3.56113553e-01, 2.69984722e-01, 3.65923434e-01, 1.58154100e-01,
          -1.16603762e-01, -8.33576471e-02, -2.64131039e-01,
          2.28543353e+00, 1.25832462e+00, 6.27437115e-01,
          -2.01044297e+00, -2.80595207e+00, -5.45337439e-01,
          5.74451089e-01, -2.10481837e-01, -2.20234320e-01,
          -1.43757522e-01, -6.91088259e-01, -2.74231374e-01,
          -7.29753375e-02, -3.03386003e-02, -6.57118438e-03,
          -1.35075241e-01, -1.22712207e+00, -5.45337439e-01,
          5.74451089e-01, -2.10481837e-01, -2.20234320e-01,
          -1.43757522e-01, -6.91088259e-01, -2.74231374e-01,
          -7.29753375e-02, -3.03386003e-02, -6.57118438e-03,
          -1.35075241e-01, -1.22712207e+00, -6.98972464e-01,
          -1.21199274e+00, -9.04190302e-01, -2.98542768e-01,
          -6.55510664e-01, 8.79283488e-01, -8.07774425e-01,
          -8.25713515e-01, 7.04580918e-02, 3.35457683e-01,
          -1.14220142e+00, 9.54575464e-02, -3.86426359e-01,
          5.44705451e-01, -1.67442083e-01, -1.87071025e-01,
          -1.24234095e-01, -6.42611504e-01, -8.36734623e-02,
          -5.72107434e-02, -2.59959158e-02, -3.41442786e-03,
          -1.16331175e-01, -9.92811799e-01, -5.82367778e-01,
          -1.05757666e+00, -8.12712669e-01, -2.55047083e-01,
          -5.79518497e-01, 8.99529517e-01, -5.93670189e-01,
          -7.49469757e-01, 6.23644777e-02, 3.08636874e-01,
          -9.87049282e-01, 1.55308425e-01, 9.11247432e-02,
          -8.21950659e-02, -1.46649852e-01, -3.10244523e-02,
          -5.72897792e-02, 6.87697604e-02, -5.87002695e-01,
          -2.44880512e-01, -2.52939701e-01, 2.09600240e-01,
          4.18962203e-02, 3.68946269e-02, -6.07242107e-01,
          1.43722981e-01, -3.00452888e-01, -1.01760946e-01,
          -1.48167789e-01, -4.46322858e-01, -6.36686802e-01,
          3.30026112e-02, 2.79724365e-03, 2.56682355e-02,
          -2.14589154e-03, -3.83141220e-01, 1.13749683e-01,
          -1.04234844e-01, -1.74519256e-01, -3.85299549e-02,
          -7.84622058e-02, -1.04332007e-01, -6.37091279e-01,
          -2.65401870e-01, -2.74503559e-01, 2.35064492e-01,
          4.22879867e-02, 4.45021642e-03, -8.17598403e-01,
          1.78298026e-01, -3.24775636e-01, -1.04694769e-01,
          -1.59273267e-01, -6.30686224e-01, -8.75784039e-01,
          3.88411954e-02, 2.93671503e-03, 2.66460609e-02,
          -2.55116099e-03, -3.81977916e-01, 2.19051808e-01,
          -1.05200541e+00, -5.37358262e-02, 2.15193704e-02,
          1.41222918e+00, 7.71211758e-02, -1.17584780e-01,
          1.41457468e-01, 5.18817127e-01, 8.43399167e-01, 9.26519394e-01,
          5.46013951e-01, -7.55181611e-01, -1.15109694e+00,
          -9.80848432e-01, -4.31499839e-01, -1.11894703e+00,
          3.31631660e-01, 5.01659751e-01, -9.11351800e-01,
          1.01694591e-01, 4.17639583e-01, -1.05595243e+00,
          -3.31241846e-01 ]
      - [ -2.99851615e-02, -1.49623483e-01, -2.10624218e-01,
          -3.07361603e-01, -9.40040275e-02, 3.03525537e-01,
          -1.36459792e+00, -2.23812744e-01, 2.34153327e-02,
          -4.17365581e-01, -2.70034313e-01, -2.23950386e-01,
          -4.22470719e-01, -8.17051768e-01, -8.68432105e-01,
          -1.57399476e-01, 4.31790709e-01, 6.14359736e-01,
          -3.49877626e-01, 1.19104618e-02, 9.96238440e-02,
          2.46871218e-01, 1.48483664e-01, -8.81084800e-02,
          -4.22470719e-01, -8.17051768e-01, -8.68432105e-01,
          -1.57399476e-01, 4.31790709e-01, 6.14359736e-01,
          -3.49877626e-01, 1.19104618e-02, 9.96238440e-02,
          2.46871218e-01, 1.48483664e-01, -8.81084800e-02,
          3.68132949e-01, -3.31735224e-01, -1.90398172e-01,
          -4.54095900e-02, -2.65759319e-01, -8.92779529e-01,
          -7.52227545e-01, -1.57215863e-01, -7.82179981e-02,
          2.04353392e-01, 1.00341059e-01, -4.72947657e-01,
          -4.60738420e-01, -7.10957289e-01, -7.55921543e-01,
          -1.79434761e-01, 3.53428245e-01, 5.00817001e-01,
          -4.05282319e-01, -2.34526191e-02, 7.11441040e-02,
          1.79329231e-01, 1.10956885e-01, -1.58303350e-01,
          7.03203380e-02, -3.10485274e-01, -1.81173250e-01,
          -5.03938459e-02, -2.29364440e-01, -7.62656569e-01,
          -6.42704427e-01, -1.46969095e-01, -7.14609772e-02,
          1.71490088e-01, 7.67238811e-02, -4.17050183e-01,
          1.31253242e-01, -2.92350054e-01, -3.95915955e-02,
          -1.07080035e-01, -3.16198096e-02, 4.22976077e-01,
          -1.15738839e-01, -9.27749753e-01, -2.13369489e-01,
          -4.96205688e-01, -4.78384286e-01, -5.95609367e-01,
          -2.52190650e-01, -5.95775604e-01, -6.22716606e-01,
          -1.41109899e-01, 4.06975001e-01, 3.88429075e-01,
          -1.44170851e-01, -1.65099993e-01, -1.99386105e-03,
          1.29837736e-01, 7.66958743e-02, -1.55162483e-01,
          1.30543962e-01, -3.09122562e-01, -4.56660576e-02,
          -1.32547736e-01, -3.58179882e-02, 4.36826795e-01,
          4.77490276e-02, -9.44292068e-01, -2.14355245e-01,
          -5.18103898e-01, -4.84239757e-01, -6.29413843e-01,
          -2.96689332e-01, -6.15422308e-01, -6.29409194e-01,
          -1.39574006e-01, 4.26066309e-01, 4.77106422e-01,
          -3.03151533e-02, -1.94329143e-01, -4.50681336e-03,
          1.29418805e-01, 7.52866864e-02, -1.81140259e-01,
          6.54100299e-01, 4.39846963e-01, -9.46785688e-01,
          -1.55737829e+00, -4.27220076e-01, -3.47248822e-01,
          9.26331878e-02, -2.52536368e-02, 2.03155051e-03,
          2.43365675e-01, 4.51260433e-02, 6.91085160e-02,
          -3.03031832e-01, -4.66125757e-01, -1.42323837e-01,
          -2.88080275e-02, -2.77124625e-02, -6.21001542e-01,
          -4.76396471e-01, -2.70815045e-01, -8.25706422e-02,
          1.29855886e-01, 2.26980317e-02, 2.20248088e-01 ]
      - [ -1.48642972e-01, -4.11591828e-02, -2.72992458e-02,
          -1.16566643e-01, -4.17696387e-02, -2.16656942e-02,
          -8.95997763e-01, 7.34828189e-02, -1.06776379e-01,
          -3.01738411e-01, -1.11732751e-01, -4.23188895e-01,
          -2.50022352e-01, -3.51636887e-01, -3.62672061e-01,
          -1.33340508e-01, 4.16209638e-01, 3.13988626e-01,
          -1.53073505e-01, 1.64003104e-01, 1.44702094e-02,
          1.58381730e-01, 8.95269513e-02, -5.84429242e-02,
          -2.50022352e-01, -3.51636887e-01, -3.62672061e-01,
          -1.33340508e-01, 4.16209638e-01, 3.13988626e-01,
          -1.53073505e-01, 1.64003104e-01, 1.44702094e-02,
          1.58381730e-01, 8.95269513e-02, -5.84429242e-02,
          -2.06712574e-01, -1.11865118e-01, -1.13449655e-01,
          -2.14694530e-01, -2.19960570e-01, -9.11491588e-02,
          -2.41764486e-01, -6.01067901e-01, -1.72828138e-01,
          2.88511869e-02, -5.67102209e-02, -1.59706473e-01,
          -2.79107213e-01, -3.50205243e-01, -3.59548479e-01,
          -1.48941934e-01, 3.71599615e-01, 2.14576542e-01,
          -2.16474250e-01, 1.54929727e-01, 9.07425955e-03,
          1.04551993e-01, 6.19733818e-02, -1.64943740e-01,
          -2.16637418e-01, -9.95418951e-02, -1.10551342e-01,
          -2.10145548e-01, -2.00791761e-01, -9.41016302e-02,
          -2.64081270e-01, -5.68776608e-01, -1.64912075e-01,
          2.34461334e-02, -5.86165339e-02, -3.02322477e-01,
          2.83691823e-01, -7.33854175e-02, -1.03991297e-04,
          -5.98770082e-02, -2.23255128e-01, 1.72319207e-02,
          3.12475234e-01, -5.86317480e-01, -5.48640549e-01,
          -6.72758877e-01, -6.86614990e-01, -1.89093813e-01,
          -3.28823298e-01, -3.04502398e-01, -2.55383611e-01,
          -4.85326350e-02, 3.73990119e-01, 1.43093556e-01,
          -1.09656759e-01, -9.42798331e-02, -9.04388912e-03,
          5.01736216e-02, 5.65278828e-02, -7.88844842e-03,
          2.89517194e-01, -7.66313970e-02, -5.33829952e-05,
          -5.86584918e-02, -2.18432441e-01, 1.27637386e-01,
          4.07238096e-01, -5.77722371e-01, -5.51232159e-01,
          -6.32200956e-01, -6.62520587e-01, -1.65108085e-01,
          -3.22604895e-01, -2.99582422e-01, -2.48510897e-01,
          1.06045175e-02, 4.40826446e-01, 2.70163000e-01,
          -4.19042446e-02, -7.07894266e-02, -8.23975075e-03,
          5.40755466e-02, 5.71163222e-02, -1.84289645e-02,
          2.38151386e-01, 1.10637266e-02, -8.85600150e-02,
          -9.63330626e-01, -1.15014386e+00, -2.29799688e-01,
          8.79330114e-02, -2.70160362e-02, -3.67197655e-02,
          -1.88858882e-01, 3.17794383e-02, 1.40886903e-01,
          -6.81377873e-02, -7.39091262e-02, -7.80624077e-02,
          -1.01325408e-01, -1.90409958e-01, -1.33898184e-01,
          -1.30321965e-01, -5.97582221e-01, -1.62060872e-01,
          -1.26298971e-03, -7.99137354e-02, -3.39442700e-01 ]
      - [ -1.26261398e-01, -9.67460964e-03, -9.91209061e-04,
          -2.69875694e-02, -1.53141534e-02, 3.47034782e-01,
          -1.04777642e-01, 6.90760851e-01, 4.25740093e-01,
          -2.66130231e-02, -1.50512597e-02, -9.85791460e-02,
          -2.46815160e-01, -1.31810144e-01, -3.47766057e-02,
          1.70164868e-01, 4.54457283e-01, 1.11847496e+00,
          -5.81419885e-01, -3.05793494e-01, -6.67634828e-04,
          7.89766107e-03, -4.53381054e-03, -7.58797005e-02,
          -2.46815160e-01, -1.31810144e-01, -3.47766057e-02,
          1.70164868e-01, 4.54457283e-01, 1.11847496e+00,
          -5.81419885e-01, -3.05793494e-01, -6.67634828e-04,
          7.89766107e-03, -4.53381054e-03, -7.58797005e-02,
          8.14179897e-01, 4.13480401e-02, -7.67391250e-02,
          -3.41134146e-02, -5.47020733e-02, 2.56048411e-01,
          -3.42801452e-01, -1.30049452e-01, 0., 4.42201048e-02,
          -4.66789166e-03, 1.30725309e-01, -2.29554847e-01,
          -1.21097475e-01, -3.22312489e-02, 1.76308110e-01,
          4.20625657e-01, 9.36200321e-01, -7.22161114e-01,
          -2.51356661e-01, -2.02124612e-03, 3.82863893e-03,
          -4.26748209e-03, -7.01086298e-02, 3.65802258e-01,
          2.62819380e-02, -6.97290003e-02, -3.28803137e-02,
          -4.67355251e-02, 1.78978741e-01, -3.55743527e-01,
          -1.20021850e-01, 0., 3.77251916e-02, -4.93818149e-03,
          1.72028974e-01, 4.20426011e-01, -1.90296024e-01,
          -1.45506561e-01, -5.16402721e-01, -2.74193704e-01,
          6.33921614e-03, 5.22661746e-01, -1.49801180e-01,
          -1.26712456e-01, -2.70546228e-01, -1.70343801e-01,
          -3.38208914e-01, -2.81104773e-01, -1.56810701e-01,
          -3.25797200e-02, 1.79589957e-01, 4.19559747e-01,
          6.05344415e-01, -4.43082064e-01, -4.59456474e-01,
          -4.29301849e-03, 5.64819202e-03, -1.07842823e-02,
          -6.05833307e-02, 4.27293450e-01, -2.09858716e-01,
          -1.66514561e-01, -5.80123067e-01, -3.07750195e-01,
          9.35512409e-03, 4.18894231e-01, -1.72555357e-01,
          -1.41504109e-01, -3.02973568e-01, -1.88986078e-01,
          -3.75350982e-01, -3.15267175e-01, -1.74605429e-01,
          -3.70530859e-02, 2.01940671e-01, 4.60997134e-01,
          6.52712524e-01, -6.11604035e-01, -5.05169928e-01,
          -4.94435430e-03, 4.98243328e-03, -1.16757005e-02,
          -6.67723417e-02, 4.38384324e-01, 2.10324273e-01,
          -3.73628698e-02, -9.31482911e-01, -1.23371169e-01,
          1.22997686e-01, 5.16905069e-01, -6.80714147e-03,
          -5.40279336e-02, -1.59797639e-01, -6.66221306e-02,
          -1.55664191e-01, 1.94824919e-01, 2.28049662e-02,
          -9.45849046e-02, -5.78391440e-02, -6.05242886e-02,
          1.21308289e-01, -3.52338403e-01, -3.86365093e-02,
          1.12526503e-03, 2.95251533e-02, 7.08331820e-03, 1.47107661e-01 ]
      - [ -7.11415112e-02, -8.68436098e-02, -1.69384442e-02,
          -5.59172295e-02, -1.06575610e-02, -9.58207771e-02,
          -4.37679559e-01, 2.39520058e-01, -1.95887312e-01,
          8.55888203e-02, 1.75294634e-02, -1.55300230e-01,
          -9.84913297e-03, -1.70876190e-01, -9.93663967e-02,
          1.37764603e-01, 3.31138015e-01, 3.58080142e-03,
          -2.76480496e-01, 1.94543675e-01, -5.47203794e-02,
          8.21048692e-02, -6.42218143e-02, -1.33479580e-01,
          -9.84913297e-03, -1.70876190e-01, -9.93663967e-02,
          1.37764603e-01, 3.31138015e-01, 3.58080142e-03,
          -2.76480496e-01, 1.94543675e-01, -5.47203794e-02,
          8.21048692e-02, -6.42218143e-02, -1.33479580e-01,
          6.02959156e-01, -2.34088108e-01, -1.21625446e-01,
          -1.97242618e-01, -1.09105699e-01, 9.28434134e-02,
          2.99113393e-01, 1.28888814e-02, -3.12668309e-02,
          -2.29259193e-01, -7.53366351e-01, 5.89294732e-01,
          -7.79590309e-02, -1.59499094e-01, -1.01635776e-01,
          6.76816702e-02, 2.50200361e-01, -1.46044865e-01,
          -3.08899879e-01, 1.37864560e-01, -5.04251868e-02,
          7.07896193e-03, -1.03450678e-01, -2.60643482e-01,
          4.79765832e-01, -2.25732684e-01, -1.22372441e-01,
          -1.91573143e-01, -1.05467185e-01, 5.96523546e-02,
          2.65863031e-01, 1.14417337e-02, -2.54945159e-02,
          -2.30876848e-01, -7.11475551e-01, 3.16125214e-01,
          4.72849786e-01, -1.02963977e-01, -1.42178357e-01,
          -1.16011485e-01, -1.22239009e-01, 1.50136694e-01,
          3.63448590e-01, -1.91216841e-01, -1.70100525e-01,
          -1.32490829e-01, -1.54689997e-01, -9.40955132e-02,
          -6.18109852e-02, -1.60993338e-01, -1.64446607e-01,
          5.52700236e-02, 1.84154049e-01, 3.02105583e-02,
          -3.31739604e-01, 2.27836674e-04, -7.82708526e-02,
          1.75822321e-02, -9.40950960e-02, -1.92158833e-01,
          4.28716600e-01, -1.16346829e-01, -1.64872214e-01,
          -1.38183147e-01, -1.42591283e-01, 1.30898729e-01,
          4.12042260e-01, -2.22977921e-01, -1.98832452e-01,
          -1.66850582e-01, -1.84546769e-01, -1.90434486e-01,
          -8.36791098e-02, -1.82386771e-01, -1.93540588e-01,
          3.40285636e-02, 1.78006396e-01, -9.73655470e-03,
          -4.00042564e-01, -2.17979145e-03, -8.52843821e-02,
          -9.62513406e-03, -1.25811756e-01, -3.08574975e-01,
          2.35508710e-01, -8.25622156e-02, -7.32640624e-02,
          -3.33877742e-01, -2.55991429e-01, 2.57027429e-02,
          6.82052821e-02, -6.03115112e-02, -5.26721328e-02,
          -8.95614154e-04, 1.13126464e-01, 1.39987454e-01,
          6.33253336e-01, -1.70978591e-01, -1.37773335e-01,
          -1.91928670e-01, -1.66875541e-01, 9.50951781e-03,
          3.09251547e-01, -5.24705369e-03, -2.83050295e-02,
          -2.95950085e-01, -8.26553285e-01, -2.81286817e-02 ]
      - [ -5.26367836e-02, -1.00200914e-01, -6.31455109e-02,
          -5.76422513e-02, -3.82960890e-03, 1.35969400e-01,
          -1.40434399e-01, -2.47344658e-01, 6.70420751e-03,
          -3.45680751e-02, -2.17320755e-01, -4.39823084e-02,
          -2.75759429e-01, -1.82687342e-01, -2.05195509e-02,
          1.26972541e-01, 3.30666780e-01, 1.50207192e-01,
          -5.53919911e-01, 6.90476000e-02, -4.65965644e-02,
          -3.97947915e-02, -9.75437611e-02, 2.75244806e-02,
          -2.75759429e-01, -1.82687342e-01, -2.05195509e-02,
          1.26972541e-01, 3.30666780e-01, 1.50207192e-01,
          -5.53919911e-01, 6.90476000e-02, -4.65965644e-02,
          -3.97947915e-02, -9.75437611e-02, 2.75244806e-02,
          5.74367762e-01, -2.06240654e-01, -1.88354388e-01,
          -1.68504804e-01, -2.03343526e-01, 9.21605825e-02,
          1.98578149e-01, -1.45586359e-03, -3.71766128e-02,
          -3.50647271e-01, -3.94419193e-01, 2.89331496e-01,
          -2.60703146e-01, -1.74274608e-01, -2.08102558e-02,
          9.92415473e-02, 2.88477600e-01, 1.04141057e-01,
          -6.06096447e-01, 4.87111025e-02, -4.24280465e-02,
          -6.08435795e-02, -1.04099102e-01, -2.36645844e-02,
          4.11085576e-01, -1.95030496e-01, -1.76949337e-01,
          -1.62832960e-01, -1.86485380e-01, 7.18078166e-02,
          1.75976247e-01, -1.38791255e-03, -3.46594267e-02,
          -3.23922306e-01, -3.65928829e-01, 1.81850418e-01,
          -2.02970635e-02, -3.20413113e-01, -6.90346807e-02,
          -4.10750806e-02, -4.38020378e-02, -3.73405337e-01,
          2.51768917e-01, -9.99485850e-02, -5.68805784e-02,
          -2.53153536e-02, -1.39087215e-01, -1.03864364e-01,
          -2.31532022e-01, -2.35594600e-01, -4.68488559e-02,
          1.06712125e-01, 2.82937706e-01, -2.79625207e-02,
          -4.92649138e-01, -2.89109237e-02, -6.33931980e-02,
          -5.87977581e-02, -1.09478727e-01, 4.20368873e-02,
          -3.47383320e-02, -3.55956137e-01, -7.96166062e-02,
          -4.29328308e-02, -4.92123701e-02, -4.21070874e-01,
          2.32993111e-01, -1.10222057e-01, -6.69277906e-02,
          -3.01893540e-02, -1.55291781e-01, -1.30702317e-01,
          -2.49572679e-01, -2.55961239e-01, -5.24468012e-02,
          1.12797521e-01, 3.05932254e-01, -2.71204785e-02,
          -6.07686102e-01, -3.28268409e-02, -6.89332932e-02,
          -6.91677779e-02, -1.22718297e-01, 2.56104004e-02,
          3.00503284e-01, 5.39477095e-02, -1.40471116e-01,
          -2.93189496e-01, -5.87807357e-01, -2.90331058e-02,
          1.15311854e-01, -2.48483662e-02, -2.81425137e-02,
          -5.16890995e-02, -6.05589105e-03, 7.85035565e-02,
          5.16766548e-01, -1.83295995e-01, -1.85057715e-01,
          -1.59741446e-01, -1.99778095e-01, 4.14772667e-02,
          2.06642598e-01, -6.84457505e-03, -3.78592834e-02,
          -3.61335218e-01, -4.08431083e-01, -9.30729881e-03 ]
      - [ -1.04785606e-01, -1.05526716e-01, -1.74492478e-01,
          -1.02031484e-01, -1.30784679e-02, 1.61064491e-01,
          -7.81086326e-01, 2.40696818e-01, -3.69309783e-01,
          -1.81005552e-01, 1.36547545e-02, -5.21473289e-01,
          -5.18411398e-01, -4.88602251e-01, -1.45877421e-01,
          3.12114894e-01, 6.36748672e-01, 1.19866639e-01,
          -7.34801412e-01, 3.38718861e-01, -1.71279743e-01,
          -1.22325152e-01, -1.66016176e-01, -3.09939504e-01,
          -5.18411398e-01, -4.88602251e-01, -1.45877421e-01,
          3.12114894e-01, 6.36748672e-01, 1.19866639e-01,
          -7.34801412e-01, 3.38718861e-01, -1.71279743e-01,
          -1.22325152e-01, -1.66016176e-01, -3.09939504e-01,
          2.75052369e-01, -1.03578813e-01, -1.26702681e-01,
          -1.21938191e-01, -2.43357435e-01, -2.60928661e-01,
          2.43363053e-01, -4.77806032e-01, -4.90951747e-01,
          -2.12683648e-01, -5.58900118e-01, -3.94434333e-01,
          -5.15955925e-01, -4.50546443e-01, -1.43901959e-01,
          1.98444605e-01, 5.10908425e-01, -5.35028093e-02,
          -7.54706323e-01, 2.44048640e-01, -1.63559869e-01,
          -2.13343680e-01, -2.06408396e-01, -4.64635998e-01,
          1.01797871e-01, -1.04360163e-01, -1.24463238e-01,
          -1.15988307e-01, -2.31098980e-01, -2.69925296e-01,
          2.17771128e-01, -4.28641140e-01, -4.36178356e-01,
          -2.17816234e-01, -5.46014607e-01, -5.99711180e-01,
          1.21306695e-01, -7.61835992e-01, -4.66980219e-01,
          -1.63390458e-01, -1.16190784e-01, 9.42872912e-02,
          -2.41513476e-01, -2.01686263e-01, -3.45165670e-01,
          -3.69289339e-01, -6.73263967e-01, -1.58166364e-01,
          -5.59664190e-01, -3.76856893e-01, -1.40836462e-01,
          2.04123944e-01, 4.86806035e-01, -2.61755913e-01,
          -6.52530789e-01, -1.63015712e-03, -2.14799210e-01,
          -2.33727515e-01, -2.27342859e-01, -1.87910333e-01,
          6.15009107e-02, -8.08970332e-01, -4.93824244e-01,
          -1.80941090e-01, -1.26742929e-01, 1.18748419e-01,
          -1.08199187e-01, -2.19124392e-01, -3.77507418e-01,
          -3.95221651e-01, -7.25484967e-01, -2.36436322e-01,
          -5.50236702e-01, -4.05278116e-01, -1.50661021e-01,
          1.98151663e-01, 5.21659970e-01, -1.14851691e-01,
          -6.88076437e-01, -2.05546571e-03, -2.28202745e-01,
          -2.69624174e-01, -2.54523784e-01, -2.95172989e-01,
          4.60048169e-01, -3.39534506e-02, -1.53866127e-01,
          -1.36259401e+00, -1.26111424e+00, 2.61143744e-01,
          3.86809409e-01, 2.67547388e-02, -5.96032329e-02,
          -2.41765469e-01, 8.16997811e-02, 2.82397389e-01,
          1.82945535e-01, -2.93565411e-02, -1.17432892e-01,
          -2.30566218e-01, -5.91676794e-02, -2.96056718e-01,
          3.14691901e-01, -5.01564443e-01, -4.85726833e-01,
          -2.87916303e-01, -6.46788359e-01, -1.02212048e+00 ]
      - [ -3.62496197e-01, -5.92878275e-02, -4.64450978e-02,
          -1.57706887e-01, -2.21820059e-03, 2.22948822e-03,
          -4.77018714e-01, 8.35972607e-01, 2.38323301e-01,
          3.41344662e-02, -2.71826506e-01, -6.74660325e-01,
          -7.18435526e-01, -7.97292218e-02, -1.28572777e-01,
          1.22972853e-01, 2.91752428e-01, 3.56913686e-01,
          -2.78087407e-01, 1.42413884e-01, 1.88861433e-02,
          2.16955900e-01, 1.25180334e-01, -2.83711374e-01,
          -7.18435526e-01, -7.97292218e-02, -1.28572777e-01,
          1.22972853e-01, 2.91752428e-01, 3.56913686e-01,
          -2.78087407e-01, 1.42413884e-01, 1.88861433e-02,
          2.16955900e-01, 1.25180334e-01, -2.83711374e-01,
          4.83655371e-03, -6.01118684e-01, -1.33060873e-01,
          -1.43130153e-01, -6.44793957e-02, -3.93306255e-01,
          -5.21848321e-01, -7.79520422e-02, -2.24165656e-02,
          1.57887563e-01, -3.32934648e-01, 4.97089140e-02,
          -6.45843089e-01, -6.86360672e-02, -1.08644657e-01,
          8.43100026e-02, 2.61682302e-01, 3.04699957e-01,
          -2.25353241e-01, 1.02846362e-01, 1.27737904e-02,
          1.55664787e-01, 9.20929834e-02, -2.85292506e-01,
          4.40006703e-02, -5.14756441e-01, -1.22564398e-01,
          -1.34277046e-01, -6.39043823e-02, -3.45359683e-01,
          -4.20318931e-01, -6.58848286e-02, -1.90882534e-02,
          1.38991505e-01, -2.83013433e-01, -4.59554158e-02,
          2.44797707e-01, 3.29581089e-02, -1.40458746e-02,
          2.73625813e-02, 2.53650211e-02, -6.73759520e-01,
          2.98856765e-01, -1.19285598e-01, -2.03625053e-01,
          -6.77462891e-02, -2.55144686e-01, -3.91014516e-01,
          -7.11386979e-01, -6.54420257e-02, -7.95306191e-02,
          1.35827944e-01, 2.80458599e-01, 4.24654305e-01,
          -4.48088795e-01, 1.09003475e-02, -1.16357196e-03,
          1.39148653e-01, 7.58709013e-02, -1.77945763e-01,
          2.12715268e-01, 3.26413810e-02, -1.83753893e-02,
          2.53854264e-02, 2.70412192e-02, -7.83138990e-01,
          3.16059053e-01, -1.30639702e-01, -2.27959558e-01,
          -8.36791024e-02, -2.83083260e-01, -4.68690395e-01,
          -8.30866933e-01, -7.08851367e-02, -8.40333179e-02,
          1.34023935e-01, 2.61603624e-01, 4.53956217e-01,
          -5.11438191e-01, 1.08728772e-02, -1.47085765e-03,
          1.38608903e-01, 7.58242384e-02, -2.21791893e-01,
          3.04832339e-01, 2.11862758e-01, -1.49687499e-01,
          -3.74462664e-01, -1.20155662e-01, -2.83545136e-01,
          -3.48736979e-02, -2.58944556e-02, 2.33124085e-02,
          2.85185277e-01, 9.58830565e-02, 2.05886066e-01,
          -4.13936935e-02, -4.17433023e-01, -1.73154891e-01,
          -1.07120551e-01, -9.27350298e-02, -3.54434758e-01,
          -2.38452837e-01, -1.81569800e-01, -2.02202685e-02,
          1.01475097e-01, -3.15112084e-01, -2.06663281e-01 ]
      - [ -1.28318667e-01, -7.89344683e-03, -7.98346698e-02,
          8.15504491e-02, -1.53535535e-03, 6.53741583e-02,
          -3.39213550e-01, -8.04374397e-01, -1.49390906e-01,
          -1.71611026e-01, 4.17680353e-01, 2.56714016e-01,
          8.95609707e-02, -1.61277518e-01, -8.95622671e-02,
          -3.92385036e-01, -1.55642077e-01, -1.93030134e-01,
          3.91870104e-02, 1.20262802e-01, 3.11760716e-02, 1.72641531e-01,
          1.34280231e-02, 6.58893883e-02, 8.95609707e-02,
          -1.61277518e-01, -8.95622671e-02, -3.92385036e-01,
          -1.55642077e-01, -1.93030134e-01, 3.91870104e-02,
          1.20262802e-01, 3.11760716e-02, 1.72641531e-01, 1.34280231e-02,
          6.58893883e-02, -1.98878065e-01, 1.46793008e-01,
          3.86067573e-03, 2.18160033e-01, -7.97893181e-02,
          -2.19917949e-02, 3.47027518e-02, -5.46374142e-01,
          -3.60208929e-01, -3.63316908e-02, -1.21772602e-01,
          -3.91411126e-01, 1.02576770e-01, -1.57356307e-01,
          -1.07734174e-01, -3.80672038e-01, -1.53697371e-01,
          -2.06000760e-01, 2.39373408e-02, 1.19148999e-01,
          3.20498310e-02, 1.55451179e-01, 9.54089593e-03,
          -3.42334695e-02, -2.48437941e-01, 1.57786876e-01,
          1.17245261e-02, 1.98283494e-01, -7.60049894e-02,
          -3.04789189e-02, -1.11449524e-04, -5.23283601e-01,
          -3.35878372e-01, -3.65333073e-02, -1.15529872e-01,
          -4.13411409e-01, 4.97699566e-02, 1.45315915e-01,
          -9.61798802e-03, 2.50996739e-01, -1.36438340e-01,
          -9.94558036e-01, 1.59094572e+00, 1.52492630e+00,
          -8.53997469e-01, -6.40023112e-01, -8.27273726e-01,
          -6.61893785e-01, -1.16343006e-01, -6.88619986e-02,
          -7.82035291e-02, -3.35974038e-01, -9.45549086e-02,
          -2.66615957e-01, -2.04539746e-01, 3.93293411e-01,
          8.60441290e-03, 1.30024597e-01, -9.71742719e-03,
          2.07276866e-01, -2.55396497e-03, 1.36361286e-01,
          -1.01554049e-02, 2.69905448e-01, -1.25362426e-01,
          -9.26073253e-01, 1.71684968e+00, 1.56852090e+00,
          -8.94055724e-01, -6.48747921e-01, -8.37543428e-01,
          -5.93418777e-01, -1.65395066e-01, -4.53231744e-02,
          -8.70212615e-02, -3.18699449e-01, -9.01857913e-02,
          -2.56631523e-01, -1.72885269e-01, 4.16439652e-01,
          1.58221740e-02, 1.42047748e-01, -9.52682737e-03,
          1.86474204e-01, -1.59605965e-01, -3.99822235e-01,
          1.09808512e-01, 2.03032136e-01, -5.98840177e-01,
          -2.35045224e-01, 1.68014392e-01, 1.50231607e-02,
          -8.78581256e-02, -1.70872077e-01, -1.02364175e-01,
          -6.91061318e-02, 1.08415127e-01, 4.70456928e-01,
          1.94596171e-01, 1.87521711e-01, -6.74973652e-02,
          -1.11015761e+00, 2.45192632e-01, -8.04404095e-02,
          -3.17173719e-01, -4.07570973e-02, -1.19916111e-01,
          -1.33160615e+00 ]
      - [ -4.23345536e-01, 1.91356242e-01, 3.06357026e-01,
          3.37632418e-01, 2.21726656e-01, 2.50134170e-01, 6.41118526e-01,
          1.44142723e+00, 4.41668242e-01, 5.97978830e-01, 3.72974634e-01,
          -1.35754451e-01, 4.07860316e-02, 3.29363048e-01,
          5.05546093e-01, 3.27624083e-01, 5.15637457e-01, 7.60450840e-01,
          -4.17307377e-01, -2.80541241e-01, 1.35273680e-01,
          5.41365258e-02, -8.00550170e-03, -6.36985600e-02,
          4.07860316e-02, 3.29363048e-01, 5.05546093e-01, 3.27624083e-01,
          5.15637457e-01, 7.60450840e-01, -4.17307377e-01,
          -2.80541241e-01, 1.35273680e-01, 5.41365258e-02,
          -8.00550170e-03, -6.36985600e-02, -1.60302848e-01,
          6.30838573e-01, -3.64432037e-02, -1.35218829e-01,
          1.15933754e-01, 3.83660436e-01, 2.18327194e-01, 1.81728005e-01,
          8.14108551e-03, 7.60142831e-03, 1.85220484e-02, 1.33745372e-01,
          5.73204570e-02, 2.94134945e-01, 4.36326176e-01, 2.89478958e-01,
          4.59972620e-01, 6.93051159e-01, -4.30323958e-01,
          -3.49235922e-01, 1.26494184e-01, 5.13566099e-02,
          -7.60519179e-03, -6.92969412e-02, -2.41302222e-01,
          6.15309894e-01, -3.01758219e-02, -1.28194064e-01,
          1.12120613e-01, 3.23263884e-01, 1.91632703e-01, 1.99557975e-01,
          8.78500100e-03, 6.17873343e-03, 1.59397814e-02, 8.87028202e-02,
          4.70610648e-01, 2.63724446e-01, -1.20922819e-01,
          2.11229026e-01, -4.26979572e-01, -3.75984013e-01,
          4.36601907e-01, 4.51149493e-01, 7.04520866e-02, 5.56027889e-01,
          7.42974356e-02, -2.89345030e-02, 6.38915673e-02,
          2.08042905e-01, 3.79174024e-01, 2.62361974e-01, 3.41772646e-01,
          4.12207067e-01, -5.38891435e-01, -2.97090769e-01,
          1.42121285e-01, 7.73320869e-02, -7.73865217e-03,
          -7.26232082e-02, 4.81315076e-01, 2.95646340e-01,
          -1.39791876e-01, 2.31165364e-01, -4.89060163e-01,
          -4.33936536e-01, 2.57986367e-01, 4.43054378e-01,
          6.43169358e-02, 6.17203832e-01, 7.22551569e-02,
          -6.53305203e-02, -6.97992416e-03, 2.15247154e-01,
          4.12399411e-01, 2.66320467e-01, 3.56142133e-01, 4.06336129e-01,
          -7.76922464e-01, -3.40530515e-01, 1.60944834e-01,
          8.31058472e-02, -9.50934459e-03, -9.69400108e-02,
          -8.03819180e-01, -1.11288816e-01, 7.13665634e-02,
          1.00332642e+00, 4.11081076e-01, 7.79745728e-02, 1.32108241e-01,
          1.02619883e-02, -3.45513038e-02, -2.20700622e-01,
          -7.98416808e-02, -2.50616908e-01, -6.17483146e-02,
          7.63087094e-01, -4.48573790e-02, -2.16189548e-01,
          -5.96067170e-03, 9.44649205e-02, 1.83415473e-01,
          6.25215292e-01, 1.87248942e-02, 2.13578856e-03, 8.77608545e-03,
          -6.98027253e-01 ]
      - [ -1.78353742e-01, -3.46190482e-02, -6.07370399e-03,
          -9.33834631e-03, 2.61337031e-03, 2.26664115e-02,
          -1.49156079e-01, 2.38654122e-01, -1.11875556e-01,
          6.17458820e-02, 1.24750882e-01, 2.88395453e-02,
          -1.95537731e-02, 1.86200961e-02, -2.63894554e-02,
          -4.49203514e-03, 9.68108103e-02, -1.07470773e-01,
          -2.60964662e-01, 4.17052582e-02, -2.98629068e-02,
          -1.08924210e-01, -1.54199019e-01, -8.21864903e-02,
          -1.95537731e-02, 1.86200961e-02, -2.63894554e-02,
          -4.49203514e-03, 9.68108103e-02, -1.07470773e-01,
          -2.60964662e-01, 4.17052582e-02, -2.98629068e-02,
          -1.08924210e-01, -1.54199019e-01, -8.21864903e-02,
          6.61674738e-01, 1.08043782e-01, -1.07404768e-01,
          -1.07308365e-01, 2.17004493e-02, 3.43132317e-01,
          4.31803405e-01, 2.79351115e-01, 2.77031157e-02,
          -1.19440056e-01, -5.16599238e-01, 1.25078082e-01,
          -1.12205781e-01, -7.07035325e-03, -5.48387952e-02,
          -4.28857505e-02, 6.65246099e-02, -1.49090976e-01,
          -3.64317715e-01, 3.17067839e-02, -2.65688915e-02,
          -1.09136768e-01, -1.49438277e-01, -1.24471240e-01,
          5.34380853e-01, 7.92628676e-02, -1.12117037e-01,
          -1.37513325e-01, -5.08057000e-03, 2.89958656e-01,
          3.68815243e-01, 2.53743142e-01, 2.61650998e-02,
          -1.15397111e-01, -5.29615760e-01, 2.43420303e-02,
          6.41476884e-02, 3.65239102e-03, -1.52120471e-01,
          -1.09092116e-01, -7.64852986e-02, -1.94827363e-01,
          4.57419813e-01, 3.36845100e-01, -6.15358129e-02,
          -1.57893577e-03, -7.94375837e-02, -1.15131468e-01,
          -4.40026000e-02, 3.37997940e-03, -1.27175495e-01,
          -9.66482162e-02, 1.43968854e-02, -1.71859786e-01,
          -2.64989197e-01, 1.01702474e-01, -1.35112032e-02,
          -7.87960961e-02, -1.48360267e-01, -1.43686607e-01,
          3.60039398e-02, -1.03081402e-03, -1.70233235e-01,
          -1.28598809e-01, -8.35243165e-02, -2.33833447e-01,
          4.05381352e-01, 2.80915469e-01, -8.59663188e-02,
          -2.12651063e-02, -1.20120555e-01, -1.81719214e-01,
          -1.53127879e-01, -1.09876003e-02, -1.61497056e-01,
          -1.34859830e-01, -7.77973374e-03, -2.27223054e-01,
          -3.53635699e-01, 9.37845856e-02, -1.43320272e-02,
          -9.21116993e-02, -1.63774371e-01, -2.00861856e-01,
          -2.26306729e-02, -1.10104144e-01, -1.96080375e-02,
          2.47009948e-01, -2.51535535e-01, -1.01336397e-01,
          5.05010448e-02, -8.63706544e-02, -8.05055872e-02,
          -7.81399384e-02, -7.55793005e-02, 1.54228657e-02,
          6.79653108e-01, 2.05178946e-01, -8.94757360e-02,
          -1.21978909e-01, -8.92424881e-02, 1.49699643e-01,
          3.55366409e-01, 2.93963403e-01, 4.45467308e-02,
          -1.35232091e-01, -6.19821608e-01, -4.02784079e-01 ]
      - [ 9.38347075e-03, -4.64857966e-02, -1.56080276e-02,
          5.17593995e-02, 1.93780679e-02, 6.45588934e-02, 9.78498980e-02,
          -2.19922960e-01, -2.00889669e-02, 1.45605326e-01,
          -1.91830471e-02, 2.45312810e-01, 8.36246684e-02,
          -3.93168814e-02, 1.01499900e-01, 1.37223721e-01,
          2.06272021e-01, 1.41338721e-01, -4.68113929e-01,
          -2.10177037e-03, 7.72718224e-04, -6.32840618e-02,
          -1.11993559e-01, -4.16549891e-02, 8.36246684e-02,
          -3.93168814e-02, 1.01499900e-01, 1.37223721e-01,
          2.06272021e-01, 1.41338721e-01, -4.68113929e-01,
          -2.10177037e-03, 7.72718224e-04, -6.32840618e-02,
          -1.11993559e-01, -4.16549891e-02, 6.10762537e-01,
          5.16297929e-02, -1.00975700e-01, -5.37728816e-02,
          -1.45475313e-01, 3.68003339e-01, 3.67914617e-01,
          2.20947206e-01, 4.48429398e-02, -1.84719577e-01,
          -2.76813954e-01, -3.88700254e-02, 8.03574100e-02,
          -4.72022668e-02, 8.28800499e-02, 1.14865147e-01,
          1.75599366e-01, 1.09528132e-01, -4.60406512e-01,
          -2.76894704e-03, 1.72302767e-03, -5.97041957e-02,
          -1.04712285e-01, -4.30311747e-02, 5.18115938e-01,
          4.92626242e-02, -9.52549502e-02, -5.89024313e-02,
          -1.33671120e-01, 3.18065435e-01, 3.26127261e-01,
          2.04206020e-01, 4.07662764e-02, -1.72805712e-01,
          -2.59867013e-01, -7.23884255e-02, -1.57746345e-01,
          -1.59196615e-01, 3.08950525e-03, 4.99906652e-02,
          -2.26966199e-02, -5.58529854e-01, 4.82891172e-01,
          1.10777095e-01, 6.29129400e-03, 8.33543763e-02,
          -4.32048477e-02, -2.39974692e-01, 9.88788307e-02,
          -1.25236809e-01, 6.49718642e-02, 1.01551063e-01,
          1.42426565e-01, 3.12509164e-02, -4.30805743e-01,
          3.00531778e-02, 1.86378806e-04, -5.13495207e-02,
          -1.00365482e-01, -4.57764640e-02, -1.85678616e-01,
          -1.78235486e-01, 3.03433649e-03, 5.90340346e-02,
          -2.69555040e-02, -6.17713869e-01, 4.16062534e-01,
          1.04940377e-01, -1.81673106e-03, 8.71026292e-02,
          -5.29214479e-02, -2.72383422e-01, 1.12797350e-01,
          -1.51626572e-01, 5.59941195e-02, 9.90342349e-02,
          1.43601522e-01, 3.26478444e-02, -5.77731550e-01,
          3.28109860e-02, 7.84110336e-04, -5.37014008e-02,
          -1.07667677e-01, -6.31422028e-02, 7.71827123e-04,
          1.34476796e-02, 1.35723367e-01, 1.22143209e-01,
          -3.48826766e-01, -1.07675500e-01, 1.19690917e-01,
          -1.87157784e-02, -2.60150451e-02, 2.73637306e-02,
          1.06854457e-02, 9.73848905e-03, 6.74349606e-01, 1.38019204e-01,
          -9.50556993e-02, -3.74976583e-02, -1.33073926e-01,
          2.05202729e-01, 3.38700652e-01, 2.55841285e-01, 4.68943678e-02,
          -1.90045074e-01, -3.01915199e-01, -3.80066842e-01 ]
      - [ -2.72838026e-02, 9.32256132e-02, -5.14257886e-02,
          2.25819305e-01, 2.14272991e-01, 1.45091936e-01,
          -3.48574728e-01, 3.78411740e-01, -7.28111640e-02,
          3.75220090e-01, 5.61069965e-01, 1.44348696e-01,
          -4.25701216e-02, 1.99472964e-01, 4.97045577e-01,
          4.11286086e-01, 5.12167156e-01, -3.88203204e-01,
          -4.81125414e-01, 1.50226444e-01, -2.35069636e-02,
          -3.20008099e-01, -3.03843290e-01, -2.17762515e-01,
          -4.25701216e-02, 1.99472964e-01, 4.97045577e-01,
          4.11286086e-01, 5.12167156e-01, -3.88203204e-01,
          -4.81125414e-01, 1.50226444e-01, -2.35069636e-02,
          -3.20008099e-01, -3.03843290e-01, -2.17762515e-01,
          -7.45994449e-02, 4.37043667e-01, 5.24532460e-02,
          -1.90910008e-02, -7.08626434e-02, 5.10205209e-01,
          1.29496861e+00, 4.32499833e-02, -4.62182015e-01,
          -4.09157902e-01, -3.61060858e-01, 1.37709707e-01,
          2.99849510e-02, 1.76641777e-01, 4.29462910e-01, 3.64647418e-01,
          4.55105036e-01, -3.48281324e-01, -4.42661464e-01,
          1.38736233e-01, -2.05100290e-02, -2.88714021e-01,
          -2.77156651e-01, -1.85310572e-01, -4.89174910e-02,
          3.99521142e-01, 5.43709174e-02, -1.00574419e-02,
          -5.83790876e-02, 4.53632414e-01, 1.19307923e+00,
          5.17185852e-02, -4.12887812e-01, -3.74149263e-01,
          -3.38546485e-01, 1.24355175e-01, -3.80361676e-02,
          -7.86696598e-02, -4.06324506e-01, 9.21921432e-02,
          1.61416065e-02, -3.61619771e-01, 2.37459108e-01,
          8.73936117e-01, -7.31027648e-02, 1.23295747e-01,
          -2.15723664e-02, -2.57276893e-01, -7.01394752e-02,
          2.67394692e-01, 2.93973565e-01, 3.06298405e-01, 4.03206199e-01,
          -5.90830147e-01, -5.78324258e-01, 2.78121024e-01,
          -2.05100290e-02, -2.71244645e-01, -2.72600532e-01,
          -9.60555673e-02, -1.00684956e-01, -8.42113271e-02,
          -4.25666243e-01, 9.95809212e-02, 1.92238539e-02,
          -3.83663267e-01, 1.34066954e-01, 8.98945093e-01,
          -9.39399600e-02, 1.17039628e-01, -3.29468474e-02,
          -3.05555433e-01, -1.15100771e-01, 2.79216498e-01,
          2.94290453e-01, 3.16516966e-01, 4.16071445e-01,
          -6.90399826e-01, -6.96008384e-01, 3.03383023e-01,
          -2.01744549e-02, -2.86719829e-01, -2.90736228e-01,
          -1.42307460e-01, 9.97963920e-02, -1.00188188e-01,
          3.26723576e-01, 2.32764348e-01, -9.03158844e-01,
          3.51261318e-01, 2.97205925e-01, 6.46006986e-02,
          -1.98077634e-02, 7.72301033e-02, -5.00866883e-02,
          9.18432251e-02, 1.72301725e-01, 6.88678205e-01,
          -4.01321426e-02, -1.03394233e-01, -2.59018242e-02,
          4.01152462e-01, 1.19357502e+00, 2.76490748e-01,
          -4.37677175e-01, -3.97599846e-01, -3.72336715e-01,
          -6.38268769e-01 ]
      - [ -6.57761544e-02, 5.04550524e-02, 1.03019376e-03,
          3.29284817e-01, 1.24886006e-01, 2.31861562e-01,
          -2.06138730e-01, 3.16466361e-01, 1.01667736e-02,
          3.68755221e-01, -3.66133414e-02, 3.75262380e-01,
          -6.64242566e-01, 3.15380037e-01, 1.69602990e-01,
          1.42376065e-01, 2.07943574e-01, -3.76342028e-01,
          -6.34406328e-01, 1.36054829e-01, 3.16386782e-02,
          6.95764422e-02, 1.95121870e-03, -5.18354774e-01,
          -6.64242566e-01, 3.15380037e-01, 1.69602990e-01,
          1.42376065e-01, 2.07943574e-01, -3.76342028e-01,
          -6.34406328e-01, 1.36054829e-01, 3.16386782e-02,
          6.95764422e-02, 1.95121870e-03, -5.18354774e-01,
          9.23469305e-01, -2.37210035e-01, 1.39444917e-01,
          3.11904013e-01, 1.39868274e-01, 5.38052797e-01,
          -7.35274553e-01, 7.51541972e-01, 8.29209387e-02,
          2.35383008e-02, -6.31783843e-01, -4.02800664e-02,
          -5.07577777e-01, 2.86181629e-01, 1.59244865e-01,
          1.55050233e-01, 2.05244184e-01, -3.46333563e-01,
          -5.34646273e-01, 1.26430109e-01, 3.02612539e-02,
          6.78147897e-02, 1.87463872e-03, -3.62406641e-01,
          8.70432377e-01, -1.60624415e-01, 1.46119624e-01,
          2.92149425e-01, 1.24605604e-01, 5.38394272e-01,
          -6.10673726e-01, 7.16594517e-01, 7.71114156e-02,
          2.09947024e-02, -5.30434906e-01, 4.12516631e-02,
          2.63833165e-01, 2.15171084e-01, -2.05197372e-02,
          2.83501357e-01, -3.05697159e-03, -1.27313018e+00,
          3.21857691e-01, 6.98216856e-01, -2.40862891e-01,
          3.97204250e-01, -2.22044274e-01, -4.96326774e-01,
          -5.61781764e-01, 2.16156989e-01, 1.45868376e-01,
          1.45657033e-01, 1.21489257e-01, -3.23941082e-01,
          -7.59417236e-01, 2.22205356e-01, 3.02612539e-02,
          9.86051783e-02, 1.02409832e-02, -2.86975205e-01,
          1.55492514e-01, 2.16837958e-01, -2.95798965e-02,
          2.99261242e-01, -1.15413200e-02, -1.46738148e+00,
          1.25328511e-01, 7.16265738e-01, -2.78502673e-01,
          3.89917582e-01, -2.65274048e-01, -6.08534515e-01,
          -9.03014123e-01, 2.28036463e-01, 1.49664000e-01,
          1.47781253e-01, 1.09887354e-01, -4.90110338e-01,
          -1.01457381e+00, 2.40444914e-01, 3.36311162e-02,
          1.03709459e-01, 1.04937870e-02, -3.38335812e-01,
          3.97662252e-01, -1.17730483e-01, -5.63656278e-02,
          2.68599361e-01, 6.49052560e-01, -4.23621356e-01,
          4.98579055e-01, 5.76854236e-02, -6.80610463e-02,
          3.32839429e-01, 1.00807250e-01, 1.63176715e-01, 1.03555489e+00,
          1.25798732e-01, 3.93906422e-02, 2.08279207e-01,
          -8.70649815e-02, 1.57803133e-01, -5.71376503e-01,
          9.72495854e-01, 8.76593515e-02, 1.57075245e-02,
          -5.72709680e-01, -5.54492056e-01 ]
      - [ -6.79461434e-02, 2.17170622e-02, 7.55468234e-02,
          1.15598671e-01, 5.82146458e-02, 2.55934820e-02, 9.31609944e-02,
          7.58069992e-01, 3.19408536e-01, 1.79779395e-01, 1.78472832e-01,
          3.76081429e-02, 1.31385773e-01, 2.60133415e-01, 3.86439234e-01,
          2.63915807e-01, 1.05689324e-01, 4.70016062e-01,
          -3.03913414e-01, -3.41504067e-01, -3.49081843e-03,
          1.85867064e-02, -3.72293260e-04, -6.12747781e-02,
          1.31385773e-01, 2.60133415e-01, 3.86439234e-01, 2.63915807e-01,
          1.05689324e-01, 4.70016062e-01, -3.03913414e-01,
          -3.41504067e-01, -3.49081843e-03, 1.85867064e-02,
          -3.72293260e-04, -6.12747781e-02, 1.20277002e-01,
          5.28270192e-03, 3.36677278e-03, -5.86128123e-02,
          6.72092959e-02, 2.10537046e-01, 3.17147076e-01, 2.63987631e-01,
          1.98286325e-02, 7.58554135e-03, 1.19439596e-02, 2.64730543e-01,
          1.42601341e-01, 2.57467866e-01, 3.80725414e-01, 2.60176510e-01,
          1.04717501e-01, 4.62921172e-01, -2.67704278e-01,
          -3.26255113e-01, -3.61460424e-03, 1.70212314e-02,
          -8.00755399e-04, -5.86447045e-02, 1.57984599e-01,
          5.86893689e-03, 3.07034166e-03, -5.61147146e-02,
          6.69689775e-02, 2.08984569e-01, 3.19975853e-01, 2.61899203e-01,
          1.84586812e-02, 7.57143321e-03, 1.14082471e-02, 2.64692396e-01,
          2.36768991e-01, 4.82712290e-04, -1.45786211e-01,
          -4.89069045e-01, -1.86979815e-01, 7.14547634e-02,
          -2.83259809e-01, 9.04388651e-02, 3.17207277e-01,
          4.84164804e-01, 3.28005940e-01, 7.46754482e-02, 1.61540717e-01,
          1.36428744e-01, 3.66180658e-01, 1.99795038e-01, 1.28796950e-01,
          5.14173865e-01, -3.59493077e-01, -3.82816851e-01,
          -1.48944638e-03, 2.36776173e-02, 2.68508168e-03,
          -3.74324284e-02, 2.27472290e-01, -6.05208799e-03,
          -1.72754556e-01, -5.69863439e-01, -2.36550659e-01,
          2.76565980e-02, -3.91218603e-01, 7.16259256e-02,
          3.22643906e-01, 4.99459952e-01, 3.33455861e-01, 3.56458239e-02,
          1.07973740e-01, 1.31760344e-01, 3.84145528e-01, 1.99150667e-01,
          1.26559675e-01, 5.26139915e-01, -5.39752901e-01,
          -4.51706469e-01, -2.06526252e-03, 2.22915113e-02,
          9.59199679e-04, -6.00368865e-02, -2.48676822e-01,
          2.19747767e-01, 1.41953617e-01, 7.19289839e-01, 5.39513469e-01,
          1.79999188e-01, -3.88761871e-02, 6.59215823e-03,
          -3.83537821e-02, -3.55377123e-02, -6.29791915e-02,
          -2.64324754e-01, 7.00123608e-02, -1.56000152e-03,
          -3.11339870e-02, -1.17494337e-01, 2.02997196e-02,
          2.41734385e-01, 3.70787770e-01, 3.52838695e-01, 2.01054048e-02,
          9.31217894e-03, 1.01313125e-02, 2.26562589e-01 ]
      - [ -5.70411272e-02, -1.45210683e-01, -2.68109273e-02,
          3.81560698e-02, 2.95162294e-02, -2.61281282e-02,
          -4.62708056e-01, 4.76590365e-01, -1.41407117e-01,
          4.15063798e-02, -4.10400610e-03, -6.04386777e-02,
          6.32396638e-02, -8.58708471e-02, 3.43144313e-02,
          3.36916260e-02, 1.67098239e-01, -1.85328841e-01,
          -2.97879696e-01, -7.83453807e-02, -4.28751223e-02,
          -7.90351555e-02, -2.33664915e-01, -2.25283429e-01,
          6.32396638e-02, -8.58708471e-02, 3.43144313e-02,
          3.36916260e-02, 1.67098239e-01, -1.85328841e-01,
          -2.97879696e-01, -7.83453807e-02, -4.28751223e-02,
          -7.90351555e-02, -2.33664915e-01, -2.25283429e-01,
          6.56419694e-01, -2.02453718e-01, -3.27904791e-01,
          -3.49738859e-02, 1.84638634e-01, 3.42400402e-01,
          5.30177772e-01, 3.76771957e-01, 1.29252926e-01,
          -1.51293710e-01, -9.06463027e-01, 6.73758507e-01,
          -3.61611880e-02, -8.77035707e-02, 2.49071084e-02,
          2.48836149e-02, 1.48612112e-01, -2.34825194e-01,
          -3.05721819e-01, -7.52162859e-02, -4.03613932e-02,
          -8.16373080e-02, -2.38228112e-01, -2.49810115e-01,
          6.12363398e-01, -2.06919089e-01, -3.30864251e-01,
          -4.27985899e-02, 1.43615529e-01, 3.26861829e-01,
          5.06180227e-01, 3.59063596e-01, 1.19360849e-01,
          -1.76438630e-01, -8.98743629e-01, 6.23281598e-01,
          -7.99248666e-02, -1.11170493e-01, -1.51115417e-01,
          -1.74454346e-01, -1.25603870e-01, 2.16001913e-01,
          -2.05199614e-01, -2.13585068e-02, 1.77321464e-01,
          1.59600392e-01, -1.67260668e-03, -8.83700848e-02,
          7.84978941e-02, -1.06223926e-01, -1.13050580e-01,
          -9.93700176e-02, 5.56380376e-02, -2.91848667e-02,
          -3.10455173e-01, -5.48070334e-02, -5.00571243e-02,
          -3.94424088e-02, -2.10490853e-01, -2.30342120e-01,
          -9.28734392e-02, -1.25357687e-01, -1.64447293e-01,
          -1.92026809e-01, -1.33862525e-01, 1.85642928e-01,
          -2.34910220e-01, -3.64973769e-02, 1.74973607e-01,
          1.41286716e-01, -2.65723318e-02, -1.34068534e-01,
          2.06709802e-02, -1.29550755e-01, -1.26742303e-01,
          -1.16507664e-01, 4.63801362e-02, -1.07310623e-01,
          -3.50782841e-01, -5.91437109e-02, -5.33625931e-02,
          -4.96294461e-02, -2.33502626e-01, -2.54176855e-01,
          8.39607641e-02, 7.14495927e-02, 6.92615658e-02, 1.99188087e-02,
          -6.42765546e-04, 3.39919445e-03, 2.01500859e-02,
          3.15096555e-03, -1.59214903e-02, 1.63076282e-01,
          -1.67087950e-02, 3.15202214e-02, 7.46251285e-01,
          -9.55609456e-02, -1.70426309e-01, -2.43341941e-02,
          1.21815419e-02, 2.53217041e-01, 4.73381102e-01, 3.58833373e-01,
          1.20431498e-01, -1.93268254e-01, -9.45877552e-01,
          2.26591825e-01 ]
      - [ -1.08315032e-02, -6.04884475e-02, -2.21259017e-02,
          -3.98408016e-03, 2.04775203e-02, 2.58561759e-03,
          6.81859180e-02, -1.63720936e-01, -8.61691684e-03,
          4.75777201e-02, -1.89272910e-01, -3.26478668e-02,
          3.06251775e-02, 3.58360745e-02, 3.07818890e-01, 1.85153022e-01,
          1.11826777e-01, 9.71718654e-02, -4.02591109e-01,
          -1.60014778e-02, -3.17031667e-02, -1.43437594e-01,
          -1.91157073e-01, -5.57909869e-02, 3.06251775e-02,
          3.58360745e-02, 3.07818890e-01, 1.85153022e-01, 1.11826777e-01,
          9.71718654e-02, -4.02591109e-01, -1.60014778e-02,
          -3.17031667e-02, -1.43437594e-01, -1.91157073e-01,
          -5.57909869e-02, 4.06015754e-01, -1.89327687e-01,
          -1.69920057e-01, -1.76297411e-01, -4.15032692e-02,
          2.29590699e-01, 5.34846604e-01, 2.45957956e-01, 1.37380604e-02,
          -2.35217720e-01, -3.85800272e-01, 3.25893641e-01,
          1.93778388e-02, 2.66356785e-02, 2.97543049e-01, 1.80390999e-01,
          1.07058831e-01, 1.02084748e-01, -3.99237424e-01,
          -1.57090686e-02, -2.93138493e-02, -1.41429186e-01,
          -1.88047767e-01, -6.13665394e-02, 3.79989058e-01,
          -1.83730304e-01, -1.65403605e-01, -1.71676978e-01,
          -4.43399288e-02, 2.19344839e-01, 5.10619700e-01,
          2.38414288e-01, 1.21069411e-02, -2.25132585e-01,
          -3.70800555e-01, 3.02410811e-01, -4.08035398e-01,
          -3.12181145e-01, -8.76823738e-02, -9.77120027e-02,
          5.25739267e-02, -3.75176549e-01, -1.44559622e-01,
          1.74233481e-01, 2.95635462e-01, 2.60833532e-01, 9.45547223e-02,
          -4.68580946e-02, 7.00751841e-02, -7.86574930e-02,
          2.34471381e-01, 1.52167037e-01, 1.11341618e-01, 8.70490000e-02,
          -4.21803981e-01, -1.54299894e-02, -2.98826974e-02,
          -1.39923707e-01, -1.79636121e-01, -1.01613384e-02,
          -4.15779769e-01, -3.38936329e-01, -9.88895148e-02,
          -1.00288354e-01, 5.18512353e-02, -4.23441708e-01,
          -1.77610368e-01, 1.79800823e-01, 3.06094468e-01,
          2.57416934e-01, 9.17441994e-02, -5.96837066e-02,
          7.69255683e-02, -9.06045288e-02, 2.40939900e-01,
          1.60804123e-01, 1.16373219e-01, 8.22946504e-02,
          -5.24361849e-01, -1.75120477e-02, -3.33255716e-02,
          -1.50472462e-01, -1.95052460e-01, -1.17798420e-02,
          1.84624970e-01, 7.07587227e-02, -5.27087636e-02,
          1.14865126e-02, -1.91694990e-01, -5.03787654e-04,
          -1.03689497e-02, -1.73048880e-02, -3.35862711e-02,
          4.23053000e-03, 4.28826176e-03, 2.24295873e-02, 4.65839922e-01,
          -1.63128078e-01, -1.79205865e-01, -1.77413821e-01,
          -7.23880380e-02, 2.73244947e-01, 5.33374071e-01,
          2.48090148e-01, 1.26526775e-02, -2.40348086e-01,
          -3.92239153e-01, 1.68185323e-01 ]
      - [ -7.83313811e-03, -4.85554747e-02, -4.06337231e-02,
          9.03512090e-02, 5.68426624e-02, 1.82241108e-02,
          -9.97748375e-02, 3.67419302e-01, -2.48853132e-01,
          2.50020057e-01, 1.87704697e-01, 6.34380504e-02, 8.50258470e-02,
          1.10040136e-01, 2.86714077e-01, 4.12701786e-01, 2.85365760e-01,
          -4.98173922e-01, -3.66148412e-01, 9.11062732e-02,
          -1.30014226e-01, -3.29749733e-01, -2.16301829e-01,
          -8.80403668e-02, 8.50258470e-02, 1.10040136e-01,
          2.86714077e-01, 4.12701786e-01, 2.85365760e-01,
          -4.98173922e-01, -3.66148412e-01, 9.11062732e-02,
          -1.30014226e-01, -3.29749733e-01, -2.16301829e-01,
          -8.80403668e-02, 2.30101064e-01, -3.39018628e-02,
          8.83021653e-02, -7.47296885e-02, -1.01708691e-03,
          3.61633718e-01, 7.71934450e-01, 2.97814339e-01,
          -3.96959484e-02, -3.88264865e-01, -3.95820826e-01,
          3.65104258e-01, 1.23735130e-01, 1.15600176e-01, 2.82047212e-01,
          4.17525828e-01, 2.77442545e-01, -4.20319140e-01,
          -2.62894154e-01, 9.15136784e-02, -1.22025140e-01,
          -3.27797413e-01, -2.10285589e-01, -7.50093609e-02,
          3.12375456e-01, -3.28921638e-02, 8.37336257e-02,
          -6.72766492e-02, -4.90961596e-03, 3.74726355e-01,
          7.65481710e-01, 3.07309806e-01, -3.18809114e-02,
          -3.86685729e-01, -3.98315042e-01, 4.57519978e-01,
          -4.29153919e-01, -2.19316497e-01, -1.39835283e-01,
          -6.76034912e-02, 1.38324797e-01, 1.49425760e-01,
          -8.76294315e-01, 3.49741369e-01, 2.24677578e-01,
          3.25272679e-01, 3.83129328e-01, -2.79982060e-01,
          1.44154355e-01, 1.03472285e-01, 1.87654898e-01, 3.30561042e-01,
          2.46965885e-01, -3.62454623e-01, -4.23132569e-01,
          9.56993327e-02, -1.13326386e-01, -3.00240368e-01,
          -1.97273031e-01, -9.05982181e-02, -4.75878537e-01,
          -2.27929607e-01, -1.36657938e-01, -7.03677759e-02,
          1.41086817e-01, 1.23834386e-01, -9.92636025e-01,
          3.58516961e-01, 2.33595461e-01, 3.52430642e-01, 4.00733501e-01,
          -3.08282763e-01, 1.10264137e-01, 1.04636371e-01,
          2.12597921e-01, 3.36540163e-01, 2.58274913e-01,
          -4.12190080e-01, -4.88758624e-01, 9.33470279e-02,
          -1.20067172e-01, -2.91792691e-01, -1.99591368e-01,
          -1.11035272e-01, -5.03037758e-02, 3.93206673e-03,
          -4.84032892e-02, 4.60115299e-02, 1.18822619e-01,
          2.23455772e-01, 3.74188125e-02, 2.68182550e-02, 2.97048893e-02,
          2.02115983e-01, 6.37040362e-02, 9.11507159e-02, 2.34068871e-01,
          4.76997457e-02, 8.77036992e-03, -2.30463549e-01,
          4.38884497e-02, 5.24173498e-01, 7.92811036e-01, 3.06338668e-01,
          -4.53316309e-02, -3.85712743e-01, -3.75182807e-01,
          3.62014413e-01 ]
      - [ -6.59726709e-02, 1.24493381e-02, 9.23603773e-02,
          1.12324953e-01, 9.34950933e-02, 3.76185253e-02,
          -1.63771324e-02, 5.43051660e-01, 5.73198125e-02,
          2.76221097e-01, 9.31799486e-02, 5.48498444e-02,
          -2.47769043e-01, 2.89309204e-01, 1.34252921e-01,
          3.23144078e-01, 1.29404485e-01, -2.95838386e-01,
          -4.07155573e-01, 3.84800211e-02, 2.93897907e-03,
          5.22137284e-02, 6.57455809e-03, -1.92377672e-01,
          -2.47769043e-01, 2.89309204e-01, 1.34252921e-01,
          3.23144078e-01, 1.29404485e-01, -2.95838386e-01,
          -4.07155573e-01, 3.84800211e-02, 2.93897907e-03,
          5.22137284e-02, 6.57455809e-03, -1.92377672e-01,
          7.55060792e-01, -1.28196925e-01, 6.60943240e-02,
          -1.87966257e-01, 1.73159912e-02, 2.40446642e-01,
          -3.50687712e-01, 3.68022472e-01, 9.54683423e-02,
          4.61768918e-02, -5.41035570e-02, 3.51512074e-01,
          -1.62380576e-01, 2.97402442e-01, 1.37689874e-01,
          3.29482198e-01, 1.37846336e-01, -2.23214865e-01,
          -2.75877953e-01, 3.59326005e-02, 2.61636078e-03,
          5.10633662e-02, 6.34127809e-03, -1.30100444e-01,
          8.28861356e-01, -1.07416444e-01, 6.83406666e-02,
          -1.70226708e-01, 1.88772436e-02, 2.71552235e-01,
          -2.59501994e-01, 3.66058201e-01, 8.82882848e-02,
          4.32708859e-02, -4.43496108e-02, 4.23147649e-01,
          7.08825001e-03, 1.89706281e-01, 9.35972668e-03, 1.09691843e-01,
          4.93233427e-02, -7.64041424e-01, -8.18463206e-01,
          2.92953104e-01, 1.91007555e-01, 5.57502985e-01, 6.81285918e-01,
          -2.37558737e-01, -1.50105387e-01, 2.07981274e-01,
          1.06996879e-01, 2.96927005e-01, 1.18772216e-01,
          -1.72756895e-01, -4.63027775e-01, 4.84469607e-02,
          5.35080535e-03, 7.83382505e-02, 2.07111835e-02,
          -1.16077669e-01, -7.09648952e-02, 1.99104965e-01,
          7.19839800e-03, 1.13266118e-01, 4.64487076e-02,
          -9.31853950e-01, -1.00336742e+00, 2.96723872e-01,
          1.81000352e-01, 5.72714567e-01, 6.90578341e-01,
          -3.18769246e-01, -3.25453013e-01, 2.13203475e-01,
          1.12918131e-01, 3.03567439e-01, 1.10949293e-01,
          -2.93636352e-01, -6.16431594e-01, 4.83347848e-02,
          4.98166122e-03, 8.10042173e-02, 2.16644481e-02,
          -1.58161476e-01, 2.57025421e-01, 3.04028392e-01,
          -2.91939303e-02, 6.32876992e-01, 5.21069050e-01,
          -3.29010814e-01, -5.43177302e-04, 6.49472559e-03,
          1.27321497e-01, 1.70855299e-01, 1.26733124e-01, 8.94923806e-02,
          5.21767199e-01, -1.67847216e-01, -9.07291844e-03,
